tree
version=v4
num_class=1
num_tree_per_iteration=1
label_index=0
max_feature_idx=11
objective=regression
feature_names=model car_type fuel_type car_rating riders mean_rating distance_sum rating_min speed_max user_ride_quality_median deviation_normal_count user_uniq
feature_infos=[0:25] [0:3] [0:1] [1.24:7.7599999999999998] [23:142862] [3.5298850574712648:5.7007471264367817] [1478866.3194710591:30787417.679377891] [0:1.5] [92.773823214384038:209.98283950882248] [-38.116344812235766:35.77049335204191] none [138:174]
tree_sizes=1721 1790 1778 1779 1778 1806 1729 1747 1772 1769 1759 1794 1765 1776 1780 1796 1778 1770 1790 1786 1788 1772 1764 1787 1779 1803 1804 1777 1774 1756 1782 1778 1797 1807 1775 1813 1783 1775 1771 1797 1809 1782 1784 1796 1795 1796 1785 1788 1775 1797 1788 1771 1795 1794 1804 1803 1803 1753 1771 1773 1779 1763 1769 1763 1779 1766 1780 1796 1795 1763 1794 1761 1775 1782 1769 1771 1806 1770 1781 1803 1774 1761 1778 1766 1766 1775 1746 1749 1763 1757 1765 1773 1759 1788 1772 1747 1759 1782 1787 1794 1782 1791 1777 1766 1774 1760 1766 1753 1777 1786 1778 1778 1790 1760 1804 1780 1760 1777 1766 1757 1760 1789 1765 1774 1766 1760 1779 1797 1761 1764 1769 1760 1782 1793 1766 1776 1807 1777 1801 1779 1793 1796 1781 1767 1762 1774 1793 1800 1792 1798 1797 1779 1795 1785 1810 1766 1786 1772 1772 1797 1800 1782 1787 1802 1778 1794 1784 1800 1786 1799 1795 1787 1799 1788 1802 1784 1811 1797 1793 1795 1790 1793 1788 1759 1797 1750 1783 1806 1799 1759 1782 1779 1811 1799 1802 1781 1812 1793 1795 1776 1798 1802 1800 1787 1792 1791 1783 1784 1786 1793 1779 1786 1795 1792 1794 1802 1779 1762 1787 1797 1792 1774 1775 1793 1808 1780 1790 1808 1787 1795 1760 1794 1801 1785 1802 1780 1792 1808 1786 1808 1790 1793 1805 1807 1800 1801 1796 1819 1797 1791 1793 1792 1797 1800 1785 1779 1782 1792 1779 1806 1797 1773 1793 1787 1811 1793 1789 1791 1797 1800 1799 1803 1792 1809 1780 1806 1784 1792 1791 1816 1798 1804 1799 1805 1792 1811 1804 1785 1806 1828 1799 1798 1797 1820 1798 1808 1793 1787 1797 1811 1783 1799 1800 1787 1787 1791 1804 1776 1782 1795 1787 1791 1805 1793 1787 1798 1777 1797 1808 1795 1816 1792 1788 1797 1803 1798 1794 1792 1784 1804 1790 1778 1793 1815 1790 1793 1827 1787 1795 1788 1809 1803 1808 1802 1775 1805 1808 1799 1807 1807 1795 1806 1823 1831 1806 1778 1803 1796 1802 1823 1790 1791 1804 1807 1777 1798 1799 1799 1810 1811 1803 1797 1795 1803 1815 1799 1791 1796 1815 1788 1786 1810 1802 1819 1805 1787 1788 1800 1821 1792 1798 1796 1786 1786 1820 1790 1798 1799 1787 1789 1796 1795 1796 1784 1806 1797 1797 1800 1783 1794 1810 1798 1792 1809 1798 1803 1797 1788 1792 1805 1815 1795 1806 1808 1790 1798 1792 1793 1786 1802 1802 1797 1803 1807 1803 1786 1791 1801 1808 1796 1806 1797 1777 1804 1795 1798 1800 1788 1790 1790 1815 1805 1792 1805 1798 1821 1805 1797 1804 1799 1797 1804 1806 1800 1799 1813 1798 1789 1801 1800 1808 1803 1799 1802 1801 1800 1797 1772 1799 1807 1799 1803 1807 1810 1796 1805 1777 1805 1801 1802 1800 1794 1802 1790 1816 1800 1813 1791 1797 1786 1808 1793 1804 1790 1803 1788 1779 1805 1798 1783 1800 1812 1788 1807 1808 1799 1801 1799 1798 1805 1805 1801 1798 1801 1787 1799 1801 1806 1808 1802 1791 1801 1805 1791 1776 1804 1796 1778 1794 1794 1802 1800 1782 1802 1806 1801 1798 1796 1800 1800 1794 1806 1799 1802 1791 1785 1789 1814 1790 1800 1816 1816 1812 1804 1791 1801 1775 1818 1797 1813 1808 1806 1794 1792 1796 1815 1783 1777 1786 1801 1794 1798 1802 1793 1798 1802 1808 1792 1804 1803 1789 1812 1811 1801 1778 1787 1805 1790 1810 1806 1791 1798 1811 1818 1799 1785 1794 1802 1813 1803 1792 1786 1805 1804 1797 1803 1794 1801 1791 1786 1796 1789 1808 1800 1824 1812 1830 1805 1801 1804 1803 1800 1791 1802 1812 1779 1777 1805 1807 1792 1802 1792 1808 1790 1793 1810 1798 1781 1786 1823 1787 1795 1793 1799 1794 1794 1789 1802 1802 1807 1792 1795 1800 1795 1797 1788 1814 1802 1809 1785 1793 1779 1805 1801 1795 1778 1808 1805 1806 1767 1808 1805 1795 1789 1806 1775 1783 1798 1786 1816 1784 1787 1787 1793 1798 1783 1826 1805 1802 1791 1807 1791 1788 1810 1792 1784 1788 1807 1809 1797 1814 1804 1792 1771 1792 1812 1795 1810 1786 1800 1802 1799 1827 1811 1789 1809 1785 1804 1802 1802 1770 1791 1803 1780 1789 1787 1794 1817 1814 1782 1806 1779 1797 1804 1788 1814 1779 1807 1777 1796 1791 1820 1776 1813 1794 1783 1807 1788 1821 1769 1791 1788 1799 1783 1785 1805 1807 1782 1788 1800 1775 1781 1812 1797 1784 1791 1780 1763 1786 1807 1780 1799 1819 1783 1802 1788 1795 1803 1784 1785 1785 1821 1799 1767 1793 1795 1797 1792 1817 1785 1814 1779 1794 1803 1796 1814 1816 1802 1810 1776 1787 1813 1784 1827 1797 1816 1799 1768 1795 1797 1775 1807 1799 1778 1800 1831 1778 1803 1777 1770 1817 1789 1819 1777 1770 1803 1782 1790 1807 1785 1777 1774 1787 1801 1812 1776 1788 1804 1809 1801 1801 1798 1767 1786 1805 1804 1807 1803 1765 1811 1802 1772 1784 1764 1808 1800 1815 1789 1794 1765 1812 1818 1810 1784 1802 1772 1784 1784 1796 1785 1813 1807 1823 1791 1810 1765 1777 1794 1805 1802 1808 1816 1787 1778 1821 1826 1780 1775 1789 1786 1786 1794 1789 1791 1807 1825 1803 1791 1777 1785 1806 1781 1790 1812 1782 1784 1790 1789 1842 1802 1777 1806 1796 1782 1819 1776 1807 1827 1836 1837 1807 1813 1787 1771 1789 1815 1763 1803 1772 1791 1801 1791 1795 1817 1814 1819 1782 1817 1779 1805 1774 1813 1810 1772 1777 1812 1773 1795 1828 1794 1806 1803 1816 1823 1812 1808 1770 1777 1792 1829 1825 1820 1792 1835 1780 1821 1767 1788 1789 1818 1776 1798 1807 1820 1786 1777 1820 1756 1797 1810 1781 1783 1818 1812 1829 1771 1820 1810 1810 1827

Tree=0
num_leaves=20
num_cat=0
split_feature=5 5 7 0 11 9 0 5 11 6 3 6 0 11 3 11 5 11 4
split_gain=28482.4 67605.8 18117.2 7078.39 4467.56 4228.55 3857.06 3418.88 3375.68 3192.21 2990.11 2813.45 2306.56 2281.72 2224.91 2218.61 2017.23 1473.74 1238
threshold=5.0485057471264376 4.636034482758622 1.0000000180025095e-35 18.500000000000004 171.50000000000003 -1.2869624738828123 23.500000000000004 4.5724712643678167 171.50000000000003 12311589.461568343 4.6700000000000008 13065321.843282802 6.5000000000000009 168.50000000000003 3.8900000000000001 172.50000000000003 4.3674712643678175 169.50000000000003 57998.000000000007
decision_type=2 2 2 2 2 2 2 2 2 2 2 2 2 2 2 2 2 2 2
left_child=1 2 -1 4 12 -5 7 13 -7 -9 14 -8 -3 -4 -6 -15 18 -14 -17
right_child=-2 3 6 5 10 8 11 9 -10 -11 -12 -13 17 15 -16 16 -18 -19 -20
leaf_value=4.816345044431344 4.8033485957979778 5.452436924912984 5.2237721858144344 5.0809149275262406 5.3549802818676371 5.6057466568947261 5.4425023987134065 5.3522939997237824 5.2236011889689689 5.0839128818033128 5.2401621043687285 5.1272133248764664 5.559148032818225 5.0044202061821652 5.6316762856525928 5.0599963332588231 4.9933628008036308 5.7832382466693071 5.1628909190688255
leaf_weight=163 169 28 35 37 28 22 23 37 25 57 36 38 24 433 31 108 94 39 131
leaf_count=163 169 28 35 37 28 22 23 37 25 57 36 38 24 433 31 108 94 39 131
internal_value=5.07915 5.1127 5.0356 5.43227 5.50968 5.26084 5.07298 5.06118 5.40248 5.18955 5.40176 5.24609 5.62235 5.04612 5.50036 5.038 5.08166 5.69787 5.11639
internal_weight=0 1389 1119 270 186 84 956 895 47 94 95 61 91 801 59 766 333 63 239
internal_count=1558 1389 1119 270 186 84 956 895 47 94 95 61 91 801 59 766 333 63 239
is_linear=0
shrinkage=0.112499


Tree=1
num_leaves=20
num_cat=0
split_feature=5 5 7 0 11 9 11 5 6 9 0 6 1 11 7 5 3 3 3
split_gain=18228.7 43502.9 11888.3 4597.06 3287.81 2581.69 2537.61 2621.4 2469.41 2461.29 2075.73 2051.49 1662.58 1297.3 1383 1242.54 1876.46 1202.82 1064.77
threshold=5.0485057471264376 4.6483333333333343 1.0000000180025095e-35 19.500000000000004 171.50000000000003 -1.2869624738828123 167.50000000000003 4.5883045977011507 11412299.653625449 -4.1168400318173743 23.500000000000004 13764403.057988336 1.0000000180025095e-35 171.50000000000003 0.29500000000000004 4.8068678160919545 4.1300000000000008 4.4500000000000011 2.9700000000000002
decision_type=2 2 2 2 2 2 2 2 2 2 2 2 2 2 2 2 2 2 2
left_child=1 2 -1 4 9 -5 -4 10 -9 -3 12 -12 -8 18 -15 16 -6 -10 -14
right_child=-2 3 6 5 15 -7 7 8 17 -11 11 -13 13 14 -16 -17 -18 -19 -20
leaf_value=-0.27963273239468012 -0.29429390707337982 0.34863878868175591 0.30806022208632056 -0.048156340618499237 0.44938350550206813 0.34939839214502999 0.13618313609882299 0.35938413206919473 -0.10502878380905178 0.68803381754049775 0.3525046120006044 -0.028247038860267391 0.10751566199723092 -0.010329969264121061 -0.25921206005022862 0.52565236575189922 0.14535368204477123 0.16153571731490154 -0.12018545476497162
leaf_weight=164 169 27 23 28 33 31 46 31 30 67 25 26 20 474 21 25 41 31 246
leaf_count=164 169 27 23 28 33 31 46 31 30 67 25 26 20 474 21 25 41 31 246
internal_value=0 0.0358068 -0.0432623 0.392559 0.46343 0.160728 -0.00342191 -0.0109631 0.141279 0.590548 -0.0272874 0.158396 -0.039022 -0.0496126 -0.0208886 0.342732 0.280935 0.0304384 -0.103065
internal_weight=0 1389 1137 252 193 59 973 950 92 94 858 51 807 761 495 99 74 61 266
internal_count=1558 1389 1137 252 193 59 973 950 92 94 858 51 807 761 495 99 74 61 266
is_linear=0
shrinkage=0.0300109


Tree=2
num_leaves=20
num_cat=0
split_feature=8 5 8 7 8 5 6 5 4 9 6 8 6 6 9 9 3 9 3
split_gain=69203.1 57348.1 18434.8 8808.43 5942.72 4992.21 2952.07 2266 2098.26 2009.88 1476.07 1478.66 1344.07 3210.23 2465.2 1635.02 1161.16 1061.23 1024.63
threshold=143.34003522697364 4.5000574712643688 175.60413555894607 1.0000000180025095e-35 183.4828770781904 4.2958620689655183 10943263.703607431 5.0485057471264376 36886.000000000007 9.577833525319706 8515702.9142331202 177.94481923760014 11765518.919414986 10476247.080751842 0.82368134067649312 -0.80113097803099798 4.410000000000001 0.613088205077163 4.2100000000000009
decision_type=2 2 2 2 2 2 2 2 2 2 2 2 2 2 2 2 2 2 2
left_child=7 3 6 -2 5 10 18 -1 -6 12 -5 -12 13 15 16 -4 -14 -7 -3
right_child=1 2 9 4 8 17 -8 -9 -10 -11 11 -13 14 -15 -16 -17 -18 -19 -20
leaf_value=-0.21279397210183745 -0.12833529168511948 0.13992792522135622 0.21624747754050816 0.046166100491208832 -0.0085894112800101435 0.01911884477866484 0.077099958336117047 -0.1332547918529822 0.091259700488125539 0.50984560683334157 -0.12902119513274374 -0.024855790383233239 0.3157072848312148 0.5884118386252416 0.22028157918358265 0.43344376575228849 0.49040599629285958 0.1367401417338486 0.29359646166160625
leaf_weight=266 147 21 20 23 80 53 114 169 252 27 132 56 23 20 45 20 21 38 31
leaf_count=266 147 21 20 23 80 53 114 169 252 27 132 56 23 20 45 20 21 38 31
internal_value=0 0.070457 0.253888 -0.00986744 0.0176007 -0.0369254 0.125478 -0.181893 0.0671997 0.375002 -0.0822792 -0.0979932 0.350567 0.412701 0.308679 0.324846 0.399086 0.0682354 0.231538
internal_weight=0 1123 342 781 634 302 166 435 332 176 211 188 149 60 89 40 44 91 52
internal_count=1558 1123 342 781 634 302 166 435 332 176 211 188 149 60 89 40 44 91 52
is_linear=0
shrinkage=0.016986


Tree=3
num_leaves=20
num_cat=0
split_feature=8 5 8 7 8 5 11 0 8 0 5 6 8 3 3 5 6 3 6
split_gain=44290 36843 12802.1 6014.06 3631.39 3670.82 1616.07 2279.03 1769.65 1466.75 1450.24 1175.66 1025.77 949.461 1366.5 965.532 1608.77 930.581 973.762
threshold=143.34003522697364 4.5090517241379322 168.82145082247436 1.0000000180025095e-35 183.7125168109998 4.2958620689655183 170.50000000000003 19.500000000000004 179.06999542780605 22.500000000000004 5.0485057471264376 12490625.506127967 177.94481923760014 4.870000000000001 4.6300000000000008 4.3176149425287358 11322465.221414626 3.7500000000000004 16224216.705893246
decision_type=2 2 2 2 2 2 2 2 2 2 2 2 2 2 2 2 2 2 2
left_child=10 3 -3 -2 5 9 8 17 -4 12 -1 -10 -5 14 15 16 -6 -8 -19
right_child=1 2 6 4 13 -7 7 -9 11 -11 -12 -13 -14 -15 -16 -17 -18 18 -20
leaf_value=-0.30259554309692893 -0.18373586542527331 0.12352096718521803 0.38454691005678709 -0.19204244385568195 0.21897930752716224 0.10813738248342483 0.35200738684282207 0.17645715885829241 0.86835548493144588 0.097799440121960776 -0.18948988087228744 0.58349449361470207 -0.04093384527534194 0.016940054668348956 0.31428471914887168 0.27783373884127771 0.019602892109912288 0.49693817325605916 0.73387916699074363
leaf_weight=266 150 123 20 129 52 98 27 23 25 26 169 28 60 93 32 25 127 64 21
leaf_count=266 150 123 20 129 52 98 27 23 25 26 169 28 60 93 32 25 127 64 21
internal_value=0 0.100191 0.367701 -0.0116096 0.0286069 -0.0450136 0.512096 0.450209 0.626543 -0.114822 -0.258653 0.717863 -0.144071 0.098647 0.130845 0.10207 0.0775223 0.506426 0.555477
internal_weight=0 1123 331 792 642 313 208 135 73 215 435 53 189 329 236 204 179 112 85
internal_count=1558 1123 331 792 642 313 208 135 73 215 435 53 189 329 236 204 179 112 85
is_linear=0
shrinkage=0.0301928


Tree=4
num_leaves=20
num_cat=0
split_feature=8 5 8 9 8 5 5 6 3 0 0 6 5 5 5 0 6 9 9
split_gain=28345.6 23864.3 7680.81 2224.12 1872.49 1558.38 1430.93 1416.09 1167.75 1385.06 1466.4 1028.67 983.535 928.154 926.047 851.448 819.074 716.363 657.379
threshold=143.34003522697364 4.4579022988505761 168.82145082247436 9.577833525319706 177.94481923760014 4.610431034482759 4.2958620689655183 11886071.855835019 4.2100000000000009 7.5000000000000009 16.500000000000004 12101406.496411597 4.6483333333333343 5.0485057471264376 3.8838218390804604 20.500000000000004 16088899.822603861 0.51237929591067821 -8.0671787744058872
decision_type=2 2 2 2 2 2 2 2 2 2 2 2 2 2 2 2 2 2 2
left_child=13 4 11 5 6 7 15 -4 17 -10 -11 -3 16 18 -6 -2 -13 -7 -1
right_child=1 2 3 -5 14 8 -8 -9 9 10 -12 12 -14 -15 -16 -17 -18 -19 -20
leaf_value=-0.10952690169349075 -0.15685826163449609 0.18365940766230349 0.37214754956899759 0.56018310693891382 0.14513191825708177 0.35092578742062547 0.02452757804984932 0.079670863857963445 0.24712142543952828 0.67027917722892016 0.38775511692526449 0.18350460049195086 -0.11747287220076152 -0.14059994269446746 0.0013294984005640241 0.0034670697279440463 -0.019699265714390929 0.15550172262779774 -0.24137635188809514
leaf_weight=34 138 63 21 35 38 38 69 34 22 25 34 35 24 169 463 32 28 24 232
leaf_count=34 138 63 21 35 38 38 69 34 22 25 34 35 24 169 463 32 28 24 232
internal_value=0 0.0743407 0.253778 0.354399 -0.0185304 0.318022 -0.0830255 0.191344 0.366745 0.436757 0.507469 0.0974818 0.0350774 -0.191919 0.0122367 -0.126679 0.0931918 0.275278 -0.224523
internal_weight=0 1123 383 233 740 198 239 55 143 81 59 150 87 435 501 170 63 62 266
internal_count=1558 1123 383 233 740 198 239 55 143 81 59 150 87 435 501 170 63 62 266
is_linear=0
shrinkage=0.0280035


Tree=5
num_leaves=20
num_cat=0
split_feature=8 2 7 8 6 8 4 8 9 11 3 9 8 3 7 8 4 8 9
split_gain=18254.9 12281.1 11430.5 4633.27 2081.12 1556.03 1267.45 1443.98 1740.88 1840.03 1224.69 1017.4 981.385 948.991 876.521 871.843 869.787 817.713 808.146
threshold=139.98951486646442 1.0000000180025095e-35 1.0000000180025095e-35 199.96795976958452 12377489.90226884 177.10963891056244 44364.500000000007 164.97804678515925 -2.6191420963013843 172.50000000000003 5.0300000000000002 -7.7286739805371623 195.96476940778146 4.2300000000000013 0.13500000000000004 185.56680652698338 3540.5000000000005 165.81999354050151 -5.2078962410059804
decision_type=2 2 2 2 2 2 2 2 2 2 2 2 2 2 2 2 2 2 2
left_child=-1 -2 -3 4 6 14 10 -8 -9 13 15 -7 16 -10 17 -4 -13 -6 -18
right_child=1 2 3 -5 5 11 7 8 9 -11 -12 12 -14 -15 -16 -17 18 -19 -20
leaf_value=-0.13217948068156893 0.60606964489059456 -0.14543113816853767 -0.068302395167695359 0.31162990255289658 0.010885678714057059 -0.021760550424234807 0.027540702109062037 0.080347543081163583 0.38947467438777783 0.09393624003317419 0.16509778997275087 -0.039784908530450733 -0.021542636050646127 0.2155501768373215 0.099495663309260893 0.086460939899407993 0.25684220266143415 -0.08647797466060321 0.10376846598169939
leaf_weight=428 22 162 52 43 100 63 55 78 34 38 32 21 41 37 31 34 22 95 170
leaf_count=428 22 162 52 43 100 63 55 78 34 38 32 21 41 37 31 34 22 95 170
internal_value=0 0.0500644 0.0390246 0.0706122 0.0591352 0.0297588 0.103444 0.134582 0.166065 0.227404 0.0395854 0.0637272 0.0849309 0.298838 -0.0178871 -0.00711689 0.105426 -0.0365479 0.121308
internal_weight=0 1130 1108 946 903 543 360 242 187 109 118 317 254 71 226 86 213 195 192
internal_count=1558 1130 1108 946 903 543 360 242 187 109 118 317 254 71 226 86 213 195 192
is_linear=0
shrinkage=0.0237652


Tree=6
num_leaves=20
num_cat=0
split_feature=8 5 8 11 11 3 0 5 11 5 9 8 8 8 5 8 0 8 4
split_gain=26043.1 34130.2 10177.8 2260.86 2014.23 1700.87 1683.02 1748.54 1205.88 1262.34 1082.55 1184.94 1012.99 961.75 900.194 890.159 1276.74 1374.7 850.569
threshold=139.98951486646442 4.5090517241379322 170.04809025791857 167.50000000000003 170.50000000000003 4.5300000000000002 19.500000000000004 4.6214655172413801 172.50000000000003 4.4546264367816102 -1.9722046227257628 187.42761281844443 164.97804678515925 183.01077563702029 3.9643678160919547 194.86479584368612 14.500000000000002 191.42469737279583 83150.500000000015
decision_type=2 2 2 2 2 2 2 2 2 2 2 2 2 2 2 2 2 2 2
left_child=-1 3 12 -2 5 -4 7 -6 9 18 -9 -12 -3 -10 -15 16 -16 -18 -5
right_child=1 2 4 8 6 -7 -8 10 13 -11 11 -13 -14 14 15 -17 17 -19 -20
leaf_value=0.89482269246152712 1.2623353965125657 1.1113525082028053 1.4021999374440088 0.95777632079655994 1.2283041112936135 1.6288900439918912 1.1676799018314157 1.3266591627273341 0.99971210102224894 1.1338284799477056 1.6264329866300256 1.4073549529269553 1.2628742727878217 1.1870708865904627 1.1824625795833199 0.99379739895728991 0.95297636705122202 1.1823638589196672 1.0339913722796019
leaf_weight=428 21 103 39 275 27 33 22 28 132 31 24 30 31 35 53 71 43 21 111
leaf_count=428 21 103 39 275 27 33 22 28 132 31 24 30 31 35 53 71 43 21 111
internal_value=0 1.10768 1.3036 1.02442 1.40736 1.5061 1.35309 1.39051 1.01795 0.991152 1.44392 1.50472 1.14641 1.04943 1.07886 1.05871 1.0981 1.02824 0.979693
internal_weight=0 1130 337 793 203 72 131 109 772 417 82 54 134 355 223 188 117 64 386
internal_count=1558 1130 337 793 203 72 131 109 772 417 82 54 134 355 223 188 117 64 386
is_linear=0
shrinkage=0.0232392


Tree=7
num_leaves=20
num_cat=0
split_feature=8 5 7 8 7 11 9 9 3 6 6 3 9 6 11 5 9 6 8
split_gain=13246.5 15470.5 7790.05 7471.87 2398.16 1768.73 1413.86 1173.23 1414.15 2122.15 1148.06 1319.8 1092.43 1088.98 1067.93 1061.71 1760.22 1306.87 1403.86
threshold=139.98951486646442 4.4827873563218406 1.0000000180025095e-35 168.82145082247436 1.0000000180025095e-35 173.50000000000003 9.577833525319706 0.41655735381307296 3.77 10422716.18664922 11547804.947042357 4.9700000000000015 -3.9740268906327381 12101406.496411597 168.50000000000003 4.3069540229885073 -2.4989415070251728 7693231.0482903635 188.42706586222991
decision_type=2 2 2 2 2 2 2 2 2 2 2 2 2 2 2 2 2 2 2
left_child=-1 4 -3 13 -2 14 7 8 -5 -10 -9 -12 -11 -4 -6 17 -17 -16 -19
right_child=1 2 3 6 5 -7 -8 10 9 12 11 -13 -14 -15 15 16 -18 18 -20
leaf_value=0.20500110899315452 0.21328767275966184 0.026303870777857435 0.50724636967751491 0.53437994433887748 0.48336429167273787 0.45407912892533597 0.8527430190593509 0.73156933732172003 0.56064535009422611 0.74165867149101983 0.38152431868518982 0.67226204623399455 1.0163417629908011 0.35024670747029435 0.50618047307904812 0.25630478120860722 0.49674870887212036 0.23220664179472514 0.34152066133481862
leaf_weight=428 144 22 60 25 30 92 32 23 23 21 32 20 25 83 21 42 56 218 161
leaf_count=428 144 22 60 25 30 92 32 23 23 21 32 20 25 83 21 42 56 218 161
internal_value=0 0.388405 0.538496 0.571253 0.316503 0.340475 0.68162 0.649218 0.715295 0.780844 0.566402 0.493347 0.890943 0.416121 0.320681 0.31088 0.393701 0.290589 0.278643
internal_weight=0 1130 366 344 764 620 201 169 94 69 75 52 46 143 528 498 98 400 379
internal_count=1558 1130 366 344 764 620 201 169 94 69 75 52 46 143 528 498 98 400 379
is_linear=0
shrinkage=0.028076


Tree=8
num_leaves=20
num_cat=0
split_feature=2 8 5 7 8 7 11 4 4 9 4 4 4 4 4 8 6 6 5
split_gain=8933.44 8196.65 9512.26 5174.07 4473.27 1268.76 1802.82 1022.36 868.098 832.048 786.487 1086.42 777.726 637.318 795.775 607.39 605.51 584.302 544.464
threshold=1.0000000180025095e-35 148.19017496762976 4.4579022988505761 1.0000000180025095e-35 175.60413555894607 1.0000000180025095e-35 171.50000000000003 38323.500000000007 45556.000000000007 1.2957875136460051 88143.000000000015 78332.500000000015 57655.500000000007 23796.000000000004 55552.000000000007 178.17071166667657 10218474.23973269 8322609.8631161395 4.3211206896551735
decision_type=2 2 2 2 2 2 2 2 2 2 2 2 2 2 2 2 2 2 2
left_child=-1 -2 5 -4 7 -3 16 -5 9 15 11 13 -9 -6 -15 -8 17 -7 -10
right_child=1 2 3 4 10 6 8 12 18 -11 -12 -13 -14 14 -16 -17 -18 -19 -20
leaf_value=0.69897191344523812 0.14682404455097225 0.15417513069591021 0.033380983370726008 0.19993478020511532 0.60692252760149779 0.17122379641244254 0.14370688563016681 0.47787419046245633 0.28853439504787148 0.12804953369699487 0.40536997545505732 0.71297133120810885 0.32302247035992881 0.39385529255666907 0.55845051061977447 0.30948858546889935 0.15769068152324286 0.37117570105775705 0.39947319486746496
leaf_weight=30 433 136 26 37 32 20 20 28 224 44 38 21 107 44 37 62 164 20 35
leaf_count=30 433 136 26 37 32 20 20 28 224 44 38 21 107 44 37 62 164 20 35
internal_value=0 0.243168 0.281266 0.389188 0.416081 0.226189 0.242817 0.321753 0.27613 0.219814 0.510409 0.540196 0.35514 0.508087 0.469041 0.269054 0.179947 0.2712 0.303526
internal_weight=0 1528 1095 370 344 725 589 172 385 126 172 134 135 113 81 82 204 40 259
internal_count=1558 1528 1095 370 344 725 589 172 385 126 172 134 135 113 81 82 204 40 259
is_linear=0
shrinkage=0.0261581


Tree=9
num_leaves=20
num_cat=0
split_feature=2 8 5 7 8 1 7 4 9 8 5 8 8 9 9 8 9 9 4
split_gain=5717.4 5245.86 6087.85 3311.41 2862.9 968.26 812.006 837.358 913.545 904.302 826.078 758.681 979.876 742.274 797.776 1658 990.622 612.95 968.479
threshold=1.0000000180025095e-35 148.19017496762976 4.4579022988505761 1.0000000180025095e-35 175.60413555894607 1.5000000000000002 1.0000000180025095e-35 56857.500000000007 1.4199330048161392 183.01077563702029 4.2583620689655186 194.86479584368612 198.05627040476608 -7.4812092847342475 0.41655735381307296 187.01270444518175 9.577833525319706 -10.677393309901079 71741.500000000015
decision_type=2 2 2 2 2 2 2 2 2 2 2 2 2 2 2 2 2 2 2
left_child=-1 -2 6 -4 5 -5 -3 8 -8 10 -9 17 -13 -6 15 -15 -16 -11 -19
right_child=1 2 3 4 13 -7 7 9 -10 11 -12 12 -14 14 16 -17 -18 18 -20
leaf_value=0.51942335727924016 0.10910858421154304 0.11457135919524175 0.024806234822880587 0.20426835805349058 0.24749262338982039 0.33451746356439716 0.18118667900306237 0.12595027640614895 0.082687622480884113 0.17128553479235389 0.24643151883654127 0.071575009309224058 0.2879858165489883 0.6038524243412785 0.29879917445866361 0.35136039966853988 0.47748556363968508 0.4200951792485399 0.25405563854858237
leaf_weight=30 433 136 26 126 22 46 154 112 87 29 48 30 21 28 62 34 26 28 80
leaf_count=30 433 136 26 126 22 46 154 112 87 29 48 30 21 28 62 34 26 28 80
internal_value=0 0.180705 0.209016 0.289215 0.3092 0.239102 0.168087 0.180443 0.145629 0.204553 0.162095 0.240688 0.160685 0.379297 0.398629 0.465389 0.351593 0.27047 0.297103
internal_weight=0 1528 1095 370 344 172 725 589 241 348 160 188 51 172 150 62 88 137 108
internal_count=1558 1528 1095 370 344 172 725 589 241 348 160 188 51 172 150 62 88 137 108
is_linear=0
shrinkage=0.0242985


Tree=10
num_leaves=20
num_cat=0
split_feature=8 5 7 8 5 11 8 6 6 9 9 6 5 8 0 0 8 4 1
split_gain=3645.86 4265.32 2242.04 2296.84 938.3 699.655 832.69 1057.24 705.982 614.412 1033.82 780.404 1568.51 1123.92 812.235 867.185 826.238 586.886 538.901
threshold=139.98951486646442 4.4579022988505761 1.0000000180025095e-35 164.41549197915947 4.6891954022988509 173.50000000000003 177.10963891056244 16724721.129456969 7451419.9260887718 8.3758241512756584 11.837312437592963 12490625.506127967 4.7620114942528744 185.56680652698338 19.500000000000004 14.500000000000002 191.99332189629845 74352.000000000015 1.5000000000000002
decision_type=2 2 2 2 2 2 2 2 2 2 2 2 2 2 2 2 2 2 2
left_child=-1 5 -3 4 -4 8 -7 17 -2 11 -11 12 13 -5 15 16 -13 -8 -10
right_child=1 2 3 9 -6 6 7 -9 18 10 -12 14 -14 -15 -16 -17 -18 -19 -20
leaf_value=0.071459444023826868 0.2013830116928462 0.015865246233049583 0.163180381883405 0.23847193740634093 0.034912623644578686 0.047914672032244816 0.16693526775804435 0.074002844147208646 0.084402377688248501 0.40546842382039872 0.20795469332762426 0.073389615107091091 0.1397216961887314 0.39038291877096104 0.091201240412323151 0.29342685250916234 0.24784900093151141 0.27854777327981878 0.12325118679485582
leaf_weight=428 26 26 93 40 28 23 40 27 386 20 20 21 29 34 26 32 20 32 207
leaf_count=428 26 26 93 40 28 23 40 27 386 20 20 21 29 34 26 32 20 32 207
internal_value=0 0.138032 0.190121 0.202602 0.133499 0.110687 0.153205 0.177667 0.102307 0.237154 0.306712 0.223381 0.260814 0.308269 0.184435 0.217641 0.158492 0.216541 0.0979634
internal_weight=0 1130 389 363 121 741 122 99 619 242 40 202 103 74 99 73 41 72 593
internal_count=1558 1130 389 363 121 741 122 99 619 242 40 202 103 74 99 73 41 72 593
is_linear=0
shrinkage=0.0194256


Tree=11
num_leaves=20
num_cat=0
split_feature=2 8 7 0 0 9 8 9 8 8 8 0 9 6 8 3 8 3 4
split_gain=3540.01 2166.17 1754.79 1062.09 920.838 1091.82 914.859 1006.88 839.136 697.648 591.385 561.782 767.366 608.842 1021.25 488.218 473.954 403.193 566.161
threshold=1.0000000180025095e-35 126.9727956640927 1.0000000180025095e-35 3.5000000000000004 23.500000000000004 -3.4195884452266978 183.7125168109998 -7.8298610293500301 193.93541042138136 186.26716197733018 182.06305690061626 7.5000000000000009 0.76206947596473851 17563371.477129418 168.82145082247436 5.3900000000000015 175.00168614739729 4.7300000000000013 70134.000000000015
decision_type=2 2 2 2 2 2 2 2 2 2 2 2 2 2 2 2 2 2 2
left_child=-1 -2 -3 -4 6 -6 10 8 -8 -9 11 12 -5 15 -15 17 -7 18 -13
right_child=1 2 3 4 5 16 7 9 -10 -11 -12 13 -14 14 -16 -17 -18 -19 -20
leaf_value=0.24742334950727715 0.042364124959928348 0.03736385608550221 0.17514493839027209 -0.015302445514886662 0.24130362679869832 0.15379621293871373 0.0093762439215985729 0.17164258558844983 0.11658405362381594 0.10598165156388861 -0.0035822271572977151 0.052814185891001321 0.083196691426096189 0.066444548891831823 0.1966425358850751 0.12312416227557117 0.046526188703918121 0.031925035156932929 0.10589746659550484
leaf_weight=30 390 162 38 37 21 21 46 47 30 280 25 108 42 31 29 44 20 64 93
leaf_count=30 390 162 38 37 21 21 46 47 30 280 25 108 42 31 29 44 20 64 93
internal_value=0 0.0744391 0.0854314 0.0934098 0.0900986 0.148833 0.0859416 0.103402 0.0516951 0.115419 0.0710655 0.0752311 0.0370642 0.0834024 0.129374 0.0744759 0.101469 0.0663985 0.0773751
internal_weight=0 1528 1138 976 938 62 876 403 76 327 473 448 79 369 60 309 41 265 201
internal_count=1558 1528 1138 976 938 62 876 403 76 327 473 448 79 369 60 309 41 265 201
is_linear=0
shrinkage=0.0157704


Tree=12
num_leaves=20
num_cat=0
split_feature=8 5 7 8 5 0 6 9 5 5 6 3 0 6 9 9 4 5 9
split_gain=2637.65 3964.78 1883.12 2092.63 875.475 627.881 1012.63 618.237 763.846 973.117 833.142 564.478 495.816 451.741 734.4 542.761 491.005 831.71 586.774
threshold=139.98951486646442 4.4579022988505761 1.0000000180025095e-35 164.41549197915947 4.6891954022988509 18.500000000000004 11939908.684531203 9.8337457822607135 4.5502011494252885 4.7620114942528744 12441134.817347616 4.870000000000001 4.5000000000000009 10187184.719656659 -6.0975668336354802 -19.626330985588854 65762.500000000015 3.8838218390804604 0.613088205077163
decision_type=2 2 2 2 2 2 2 2 2 2 2 2 2 2 2 2 2 2 2
left_child=-1 12 -3 4 -4 7 -7 8 -5 11 -11 -10 -2 14 -14 -15 -17 -18 -19
right_child=1 2 3 5 -6 6 -8 -9 9 10 -12 -13 13 15 -16 16 17 18 -20
leaf_value=0.075361906750645469 0.20404762655950975 0.0084338389778386876 0.17792109517013421 0.13527725406891924 0.021033350636216672 0.32871903359341104 0.1366663162880255 0.40063793662146313 0.30958496433091076 0.089550071709879595 0.29450759268364113 0.46111197867702619 0.23957668139221733 -0.026322802432261674 0.11337172538315474 0.081659631558375939 0.27675199097920988 0.081152478842452636 0.15787895834997168
leaf_weight=428 35 26 93 21 28 26 46 27 51 20 30 21 39 20 98 284 21 135 109
leaf_count=428 35 26 93 21 28 26 46 27 51 20 30 21 39 20 98 284 21 135 109
internal_value=0 0.147063 0.210655 0.225139 0.141616 0.2669 0.206019 0.292685 0.272302 0.295889 0.212525 0.35378 0.11368 0.1092 0.149299 0.0995449 0.10413 0.128212 0.115428
internal_weight=0 1130 389 363 121 242 72 170 143 122 50 72 741 706 137 569 549 265 244
internal_count=1558 1130 389 363 121 242 72 170 143 122 50 72 741 706 137 569 549 265 244
is_linear=0
shrinkage=0.0245977


Tree=13
num_leaves=20
num_cat=0
split_feature=8 5 8 7 11 3 5 7 3 8 11 0 8 5 5 3 8 8 4
split_gain=1619.62 2333.24 1257.39 1511.31 662.209 870.945 566.066 529.731 500.475 632.834 614.806 818.008 713.395 807.034 802.464 433.314 416.713 393.105 516.453
threshold=126.9727956640927 4.4670977011494264 164.97804678515925 1.0000000180025095e-35 173.50000000000003 3.5500000000000003 4.6891954022988509 1.0000000180025095e-35 3.7500000000000004 189.94542445929 170.50000000000003 18.500000000000004 187.42761281844443 4.7620114942528744 4.6672413793103464 4.9500000000000011 181.00725333062056 158.05805824543822 45556.000000000007
decision_type=2 2 2 2 2 2 2 2 2 2 2 2 2 2 2 2 2 2 2
left_child=-1 4 6 -4 17 -6 -3 -7 9 -5 15 12 14 -14 -12 -10 -9 -2 -19
right_child=1 2 3 8 5 7 -8 16 10 -11 11 -13 13 -15 -16 -17 -18 18 -20
leaf_value=0.053083857651751096 0.14873191727494911 0.12520210993627826 -0.0003822838650895695 0.078991047165643771 0.0035718008820549963 0.06840176279555886 0.022233853581819681 0.10835578463309818 0.22050577738602345 0.23674766673550396 0.19414366074816933 0.096856985257959188 0.25610405134584457 0.053804487439045444 0.39100800186573653 0.34778196402173839 0.22550884961158932 0.038804699280865787 0.084300875156720523
leaf_weight=398 35 104 22 35 23 25 39 23 30 22 22 36 22 20 22 27 54 198 401
leaf_count=398 35 104 22 35 23 25 39 23 30 22 22 36 22 20 22 27 54 198 401
internal_value=0 0.106969 0.151942 0.182328 0.0832088 0.131695 0.0971199 0.160585 0.19936 0.13988 0.218301 0.189103 0.227718 0.159771 0.292576 0.280794 0.190515 0.0736492 0.0692621
internal_weight=0 1160 401 258 759 125 143 102 236 57 179 122 86 42 44 57 77 634 599
internal_count=1558 1160 401 258 759 125 143 102 236 57 179 122 86 42 44 57 77 634 599
is_linear=0
shrinkage=0.0230489


Tree=14
num_leaves=20
num_cat=0
split_feature=2 0 8 5 0 9 6 0 8 5 8 8 8 8 0 9 5 4 4
split_gain=2155.04 1222.85 1009.33 1779.58 731.804 614.526 597.3 389.431 523.389 449.336 402.606 332.945 323.52 563.116 321.347 287.22 349.498 1139.26 649.437
threshold=1.0000000180025095e-35 4.5000000000000009 176.99689804669933 4.4793678160919557 7.5000000000000009 -10.24359159973943 12349674.964990528 8.5000000000000018 186.75173674414535 4.7494252873563232 181.85428743461611 169.26390023380145 120.7631476579941 159.91092179391714 16.500000000000004 -19.626330985588854 4.0988218390804603 100467.50000000001 22597.000000000004
decision_type=2 2 2 2 2 2 2 2 2 2 2 2 2 2 2 2 2 2 2
left_child=-1 6 4 15 11 12 -2 9 10 -5 -9 -3 -6 -14 -10 -4 17 18 -17
right_child=1 2 3 7 5 -7 -8 8 14 -11 -12 -13 13 -15 -16 16 -18 -19 -20
leaf_value=0.2083248442514673 0.1839448083693816 0.013976333994719068 -0.015620919489976683 0.20623014074211557 0.036766567651835849 0.03930904764819592 0.077707720250186407 0.097162136547962186 0.029365151909832295 0.1014363621064396 0.20822138616855998 -0.056491920253901463 0.18890141778303526 0.072168896173608596 0.10578105040387387 0.12823609888290299 0.040702035599301668 0.18494732455893989 0.038720098018457175
leaf_weight=30 33 106 20 29 24 588 35 22 33 24 20 27 21 36 38 32 276 25 139
leaf_count=30 33 106 20 29 24 588 35 22 33 24 20 27 21 36 38 32 276 25 139
internal_value=0 0.0550025 0.0515438 0.0679887 0.0380515 0.0456818 0.129264 0.11871 0.0999179 0.158776 0.150047 -0.000329251 0.0919433 0.115176 0.0702638 0.0508754 0.053693 0.0719864 0.0554716
internal_weight=0 1528 1460 658 802 669 68 166 113 53 42 133 81 57 71 492 472 196 171
internal_count=1558 1528 1460 658 802 669 68 166 113 53 42 133 81 57 71 492 472 196 171
is_linear=0
shrinkage=0.017915


Tree=15
num_leaves=20
num_cat=0
split_feature=2 8 7 5 8 0 8 11 3 3 6 3 4 0 4 4 3 3 3
split_gain=3156.67 2672.36 2308.99 1568.63 938.818 865.981 990.741 532.509 630.14 1225.37 647.694 684.869 593.345 585.813 491.802 1186.98 702.172 1398.5 891.127
threshold=1.0000000180025095e-35 139.98951486646442 1.0000000180025095e-35 4.3176149425287358 176.99689804669933 23.500000000000004 177.94481923760014 173.50000000000003 4.4900000000000011 4.6300000000000008 12377489.90226884 3.8300000000000005 80254.500000000015 13.500000000000002 87059.000000000015 59943.500000000007 4.4700000000000015 5.330000000000001 3.9300000000000002
decision_type=2 2 2 2 2 2 2 2 2 2 2 2 2 2 2 2 2 2 2
left_child=-1 -2 -3 5 -5 6 -4 8 10 -10 12 -12 -8 -13 15 16 18 -18 -6
right_child=1 2 3 4 14 -7 7 -9 9 -11 11 13 -14 -15 -16 -17 17 -19 -20
leaf_value=0.19941046263641862 0.0037633850471149978 -0.0044689677939116542 0.00083746804885027198 0.059904562308848358 0.10745833206034154 0.12077762767577031 0.06128592303598844 0.091965765766034629 -0.098513716568752255 0.036467035739855304 -0.011620299486272899 0.0083768826811527648 0.16170767805585329 0.1113982024895816 0.063149722522643573 0.17317840541346577 0.20983915752126689 0.032708875075145138 -0.02747273245366617
leaf_weight=30 420 162 142 237 25 31 36 61 20 93 42 22 24 35 50 61 24 20 23
leaf_count=30 420 162 142 237 25 31 36 61 20 93 42 22 24 35 50 61 24 20 23
internal_value=0 0.0373671 0.0501049 0.0594505 0.0810538 0.0406651 0.0354367 0.0501908 0.0408221 0.0125766 0.0608959 0.0363149 0.101455 0.0716356 0.105745 0.119665 0.0841837 0.129325 0.0428039
internal_weight=0 1528 1108 946 440 506 475 333 272 113 159 99 60 57 203 153 92 44 48
internal_count=1558 1528 1108 946 440 506 475 333 272 113 159 99 60 57 203 153 92 44 48
is_linear=0
shrinkage=0.0156443


Tree=16
num_leaves=20
num_cat=0
split_feature=8 5 8 6 8 5 0 8 5 8 5 6 6 5 0 6 5 3 11
split_gain=8683.32 7801.64 2442.65 1044.25 844.113 807.482 1025.52 719.855 708.25 1013.77 699.847 648.049 1650.99 786.292 503.807 526.317 606.995 477.784 458.794
threshold=143.34003522697364 4.5000574712643688 175.99273625653709 10943263.703607431 188.59831705289579 4.3069540229885073 23.500000000000004 177.94481923760014 4.3761206896551732 163.03832852553225 5.0485057471264376 11765518.919414986 10797175.882738866 4.797988505747127 6.5000000000000009 9322877.8223562334 4.0360919540229885 4.2100000000000009 171.50000000000003
decision_type=2 2 2 2 2 2 2 2 2 2 2 2 2 2 2 2 2 2 2
left_child=10 4 3 17 5 6 7 -2 -7 -10 -1 12 18 -13 -9 -16 -17 -3 -4
right_child=1 2 11 -5 -6 8 -8 14 9 -11 -12 13 -14 -15 15 16 -18 -19 -20
leaf_value=-0.042088229828916725 -0.02059305989073033 0.13189570878653756 0.31848125798570448 0.092355878937059488 0.092017601688363232 0.16585459590761534 0.16984385177194122 0.14325173555165335 0.15209540177567502 -0.011679323482121168 0.017827741401537506 0.17902289129763288 0.48536632463760293 0.31822894558768727 0.13118945407158208 0.08532800773710153 -0.027622936248816739 0.27413112470131279 0.17611769198253513
leaf_weight=266 161 21 21 115 306 45 24 25 33 51 169 76 20 30 23 38 75 31 28
leaf_count=266 161 21 21 115 306 45 24 25 33 51 169 76 20 30 23 38 75 31 28
internal_value=0 0.102353 0.194059 0.131071 0.0621953 0.0429834 0.0246537 0.013832 0.092147 0.0526607 -0.0188105 0.254168 0.309083 0.218421 0.0482571 0.0307949 0.0103606 0.21669 0.237131
internal_weight=0 1123 342 167 781 475 346 322 129 84 435 175 69 106 161 136 113 52 49
internal_count=1558 1123 342 167 781 475 346 322 129 84 435 175 69 106 161 136 113 52 49
is_linear=0
shrinkage=0.023024


Tree=17
num_leaves=20
num_cat=0
split_feature=8 5 8 7 8 0 5 11 1 8 5 8 8 9 5 3 3 8 3
split_gain=7976.11 7778.42 2167.84 1464.85 1110.76 914.624 1063.73 885.882 553.218 738.092 576.864 524.183 454.714 454.451 432.962 428.816 489.054 575.175 419.594
threshold=143.34003522697364 4.5000574712643688 175.60413555894607 1.0000000180025095e-35 185.56680652698338 23.500000000000004 4.2958620689655183 170.50000000000003 1.5000000000000002 161.8121575694301 4.6178448275862083 158.05805824543822 177.94481923760014 0.613088205077163 5.0485057471264376 2.9700000000000002 4.870000000000001 187.25491423069252 5.410000000000001
decision_type=2 2 2 2 2 2 2 2 2 2 2 2 2 2 2 2 2 2 2
left_child=14 3 8 -2 5 6 12 -4 10 -10 -3 -8 -5 -13 -1 -6 17 -17 -9
right_child=1 2 7 4 15 -7 11 18 9 -11 -12 13 -14 -15 -16 16 -18 -19 -20
leaf_value=0.041692669860528962 0.057480507066826732 0.15319244411651534 0.23547246366621746 0.051084781156787731 0.063109666239902606 0.16271587837397081 0.17029224363220477 0.1877573867801591 0.1263290934360502 0.22731080601876788 0.09622780743148493 0.073742119576832493 0.087767949493825492 0.13999383615257632 0.067480867981705106 0.19684425586536286 0.098169657104281938 0.126976238000194 0.1276574730127841
leaf_weight=266 147 46 60 135 20 23 22 93 27 20 73 42 89 27 169 21 84 171 23
leaf_count=266 147 46 60 135 20 23 22 93 27 20 73 42 89 27 169 21 84 171 23
internal_value=0 0.115256 0.165364 0.0933143 0.101623 0.0860168 0.0804166 0.19617 0.132702 0.1693 0.118248 0.116741 0.0656598 0.0996667 0.0517115 0.119443 0.123525 0.134618 0.175841
internal_weight=0 1123 342 781 634 338 315 176 166 47 119 91 224 69 435 296 276 192 116
internal_count=1558 1123 342 781 634 338 315 176 166 47 119 91 224 69 435 296 276 192 116
is_linear=0
shrinkage=0.012599


Tree=18
num_leaves=20
num_cat=0
split_feature=8 2 7 7 7 8 11 9 9 4 4 0 4 8 11 11 9 9 9
split_gain=2908.6 2735.69 1866.33 955.242 687.271 679.021 604.113 588.975 488.114 921.634 1077.07 770.539 575.055 406.453 620.474 510.251 402.251 606.479 1127.99
threshold=143.34003522697364 1.0000000180025095e-35 1.0000000180025095e-35 0.13500000000000004 0.47500000000000003 177.94481923760014 173.50000000000003 2.4837438519829131 -10.677393309901079 57487.000000000007 71335.500000000015 13.500000000000002 53762.000000000007 167.04494111894078 171.50000000000003 172.50000000000003 9.4074873141287405 -0.76880203385807111 0.82368134067649312
decision_type=2 2 2 2 2 2 2 2 2 2 2 2 2 2 2 2 2 2 2
left_child=-1 -2 -3 5 7 13 8 -5 12 16 -11 -12 -7 -4 -15 -16 17 -10 -19
right_child=1 2 3 4 -6 6 -8 -9 9 10 11 -13 -14 14 15 -17 -18 18 -20
leaf_value=0.025837440395489825 0.42138478495847287 0.017148534939706132 0.10877102501253975 0.19971399073394688 0.096197142935699809 0.15200094055358371 0.20316837621056133 0.38883698718314802 0.041888186245810574 0.29380814630913266 0.2223254516338852 0.09280137749578965 -0.028735207097979713 -0.013263477185211767 0.17156002111281937 0.032231186803566951 -0.0071828441685660846 0.33863218178451793 0.091782973446367516
leaf_weight=435 22 162 184 37 28 23 79 20 67 44 55 106 35 72 40 43 32 20 54
leaf_count=435 22 162 184 37 28 23 79 20 67 44 55 106 35 72 40 43 32 20 54
internal_value=0 0.111357 0.105162 0.120347 0.210114 0.111412 0.131725 0.266073 0.11878 0.130418 0.170695 0.137049 0.042936 0.0805523 0.047054 0.0993776 0.0826912 0.103088 0.158499
internal_weight=0 1123 1101 939 85 854 515 57 436 378 205 161 58 339 155 83 173 141 74
internal_count=1558 1123 1101 939 85 854 515 57 436 378 205 161 58 339 155 83 173 141 74
is_linear=0
shrinkage=0.0280785


Tree=19
num_leaves=20
num_cat=0
split_feature=8 5 8 7 8 5 11 6 0 4 6 5 8 8 9 3 8 8 5
split_gain=13281.7 12263.7 4291.93 2598.29 1705.46 1591.94 1211.47 996.205 811.167 802.475 748.607 680.252 543.368 519.619 506.731 595.58 504.346 764.031 500.919
threshold=143.34003522697364 4.5075574712643691 175.60413555894607 1.0000000180025095e-35 183.4828770781904 4.2958620689655183 170.50000000000003 11456222.186287986 22.500000000000004 29179.500000000004 10943263.703607431 5.0485057471264376 177.94481923760014 157.09237459897628 1.9243976648736085 5.0500000000000007 186.02612544988207 188.59831705289579 3.9781034482758622
decision_type=2 2 2 2 2 2 2 2 2 2 2 2 2 2 2 2 2 2 2
left_child=11 3 10 -2 5 8 7 -4 12 18 -3 -1 -5 -7 15 -12 -11 -18 -6
right_child=1 2 6 4 9 13 -8 -9 -10 16 14 -13 -14 -15 -16 -17 17 -19 -20
leaf_value=-0.026953623038036931 0.0081734402824032125 0.23824797217640312 0.5340446160635034 -0.0016269984251116418 0.17339428714320154 0.24440656057841528 0.2845988815362821 0.34276223970255748 0.1596386728233154 0.24238995349362497 0.1411048450629615 0.029581362472957895 0.079577600598381898 0.12021261692005999 0.20254322825465532 -1.8926733994218013e-05 0.053401162763215659 0.16822380987242364 0.046885263195535036
leaf_weight=266 149 51 20 129 21 21 114 39 24 34 53 169 58 74 37 20 33 191 55
leaf_count=266 149 51 20 129 21 21 114 39 24 34 53 169 58 74 37 20 33 191 55
internal_value=0 0.138427 0.250347 0.0910485 0.110343 0.0727621 0.326549 0.407604 0.0390377 0.144773 0.168465 -0.00498946 0.0235595 0.147666 0.136112 0.102441 0.163311 0.151308 0.0818417
internal_weight=0 1123 334 789 640 306 173 59 211 334 161 435 187 95 110 73 258 224 76
internal_count=1558 1123 334 789 640 306 173 59 211 334 161 435 187 95 110 73 258 224 76
is_linear=0
shrinkage=0.0220354


Tree=20
num_leaves=20
num_cat=0
split_feature=8 5 8 8 5 11 6 5 8 3 6 4 6 6 8 8 3 3 3
split_gain=18488.7 18010.7 5683.89 1186.48 1527.98 1153.41 1013.88 998.808 880.434 836.628 834.645 756.214 704.484 587.635 700.91 869.273 712.211 593.184 536.192
threshold=143.34003522697364 4.5000574712643688 175.60413555894607 185.56680652698338 4.2958620689655183 170.50000000000003 10943263.703607431 5.0485057471264376 177.94481923760014 2.8300000000000005 11456222.186287986 39845.000000000007 8869103.337587079 11322465.221414626 195.96476940778146 194.12446699437984 5.1500000000000012 4.2700000000000005 4.2100000000000009
decision_type=2 2 2 2 2 2 2 2 2 2 2 2 2 2 2 2 2 2 2
left_child=7 3 6 4 8 10 18 -1 12 -5 -4 -10 -2 -11 15 16 -15 -16 -3
right_child=1 2 5 9 -6 -7 -8 -9 11 13 -12 -13 -14 14 17 -17 -18 -19 -20
leaf_value=-0.055544957287689184 0.11776549632176952 0.17833165943633716 0.56223365706523254 -0.018212514457922092 0.12492083730649266 0.32442383278711695 0.14654558984742536 0.01371054663299597 -0.020748910041625036 0.16849635719819378 0.38598148601584686 0.10857921939012015 -0.020053820334978545 0.13049020151601737 -0.013669903287222921 0.24696633525066936 0.0060991047155697651 0.10698168718825107 0.32412050585916091
leaf_weight=266 21 21 20 23 117 116 114 169 30 93 40 89 149 124 39 26 28 42 31
leaf_count=266 21 21 20 23 117 116 114 169 30 93 40 89 149 124 39 26 28 42 31
internal_value=0 0.142424 0.27724 0.0833879 0.0569997 0.365438 0.183728 -0.0286388 0.0295022 0.111958 0.444732 0.0759755 -0.00302908 0.120463 0.103215 0.127936 0.107576 0.0488902 0.265244
internal_weight=0 1123 342 781 406 176 166 435 289 375 60 119 170 352 259 178 152 81 52
internal_count=1558 1123 342 781 406 176 166 435 289 375 60 119 170 352 259 178 152 81 52
is_linear=0
shrinkage=0.0222768


Tree=21
num_leaves=20
num_cat=0
split_feature=8 5 8 7 8 0 5 11 0 3 4 0 6 6 11 0 6 5 5
split_gain=4477.12 4788.03 1545.77 1015.38 710.986 756 661.008 557.769 850.104 632.299 553.727 484.136 450.695 563.149 442.734 844.387 673.302 534.373 793.399
threshold=143.34003522697364 4.5000574712643688 164.97804678515925 1.0000000180025095e-35 185.56680652698338 22.500000000000004 4.2958620689655183 170.50000000000003 18.500000000000004 4.5300000000000002 62374.500000000007 15.500000000000002 11322465.221414626 8262640.4978903877 172.50000000000003 7.5000000000000009 15351524.88679436 4.2692816091954038 3.9588505747126441
decision_type=2 2 2 2 2 2 2 2 2 2 2 2 2 2 2 2 2 2 2
left_child=-1 3 -3 -2 5 6 -5 9 11 10 -4 -9 13 -6 16 -16 -14 18 -17
right_child=1 2 7 4 12 -7 -8 8 -10 -11 -12 -13 14 -15 15 17 -18 -19 -20
leaf_value=0.0041242893438510108 0.00528764484017708 0.098848418870108923 0.11714811105692251 0.016845523564915765 0.050183115438115898 0.16425939782632154 0.10291425174868311 0.20134164792857825 0.097374009200079548 0.35871781768017852 0.29914135352737403 0.33020282952033891 -0.029816244139970312 0.20929363851594093 0.27326232435079989 0.20234761134386259 0.10749105772749337 0.21345478501467557 0.0096281487379415547
leaf_weight=435 147 101 22 213 21 39 86 87 46 36 24 26 41 56 22 20 61 20 55
leaf_count=435 147 101 22 213 21 39 86 87 46 36 24 26 41 56 22 20 61 20 55
internal_value=0 0.103138 0.184899 0.0673345 0.0817208 0.055754 0.0416011 0.220961 0.192335 0.276469 0.212101 0.230991 0.111372 0.1659 0.0922003 0.126986 0.0522989 0.0931115 0.06102
internal_weight=0 1123 342 781 634 338 299 241 159 82 46 113 296 77 219 117 102 95 75
internal_count=1558 1123 342 781 634 338 299 241 159 82 46 113 296 77 219 117 102 95 75
is_linear=0
shrinkage=0.0262027


Tree=22
num_leaves=20
num_cat=0
split_feature=8 7 8 6 8 3 0 3 8 0 8 8 4 3 0 8 8 0 8
split_gain=6819.98 4849.39 2360.99 1557.25 790.786 963.666 592.531 717.032 1448.84 1156.42 860.327 888.778 605.907 586.561 607.845 577.677 588.429 570.961 1035.01
threshold=139.98951486646442 1.0000000180025095e-35 199.96795976958452 12377489.90226884 175.99273625653709 3.8100000000000001 22.500000000000004 4.1100000000000003 176.99689804669933 15.500000000000002 176.2067176782966 186.26716197733018 77244.500000000015 5.0300000000000002 9.5000000000000018 193.61034917419394 189.07846655913838 13.500000000000002 194.00255417950115
decision_type=2 2 2 2 2 2 2 2 2 2 2 2 2 2 2 2 2 2 2
left_child=-1 -2 3 6 -5 15 7 8 -3 12 -11 -12 13 14 -9 16 -6 -7 -19
right_child=1 2 -4 4 5 17 -8 9 -10 10 11 -13 -14 -15 -16 -17 -18 18 -20
leaf_value=0.045184374611505609 0.03804354701401555 0.14821275565136233 0.3426369319026894 0.10735814351841677 0.07833701372348939 0.1390282479406813 0.29601721397508757 0.073059083929836413 0.30964400546737986 0.19594559803683695 -0.072438439925996315 0.12644762410505089 0.29198101535946108 0.25657283795125269 0.23013211318813753 -0.00069326386492389461 0.22839854411917707 0.18232436694412044 0.32444317439404619
leaf_weight=428 166 54 44 217 38 86 35 35 70 31 22 28 37 34 22 24 23 128 36
leaf_count=428 166 54 44 217 38 86 35 35 70 31 22 28 37 34 22 24 23 128 36
internal_value=0 0.15494 0.17507 0.167056 0.142181 0.164738 0.204367 0.194734 0.239343 0.168268 0.0990272 0.0389378 0.212084 0.179598 0.133684 0.0966275 0.134918 0.187896 0.213521
internal_weight=0 1130 964 920 552 335 368 333 124 209 81 50 128 91 57 85 61 250 164
internal_count=1558 1130 964 920 552 335 368 333 124 209 81 50 128 91 57 85 61 250 164
is_linear=0
shrinkage=0.023416


Tree=23
num_leaves=20
num_cat=0
split_feature=8 5 8 7 8 5 6 6 9 9 5 11 5 4 8 5 0 5 3
split_gain=11030.1 10772.5 3715.37 1914.44 1390.46 1188.47 1022.5 798.719 786.824 783.091 757.531 633.719 1032.87 598.354 586.74 712.445 506.743 479.299 463.648
threshold=143.34003522697364 4.5000574712643688 175.60413555894607 1.0000000180025095e-35 183.7125168109998 4.2958620689655183 10943263.703607431 8869103.337587079 9.577833525319706 0.613088205077163 5.0485057471264376 170.50000000000003 4.7620114942528744 29179.500000000004 177.94481923760014 4.0837068965517256 7.5000000000000009 4.1706609195402313 4.2100000000000009
decision_type=2 2 2 2 2 2 2 2 2 2 2 2 2 2 2 2 2 2 2
left_child=10 3 6 -2 5 7 18 -5 11 -7 -1 12 -4 17 16 -16 -9 -6 -3
right_child=1 2 8 4 13 9 -8 14 -10 -11 -12 -13 -14 -15 15 -17 -18 -19 -20
leaf_value=-0.0083747515994395429 0.018929880770795687 0.12662795529782744 0.33051995907117732 0.12260514073767859 0.092647193888954885 0.06823663740752188 0.098658145179762777 -0.053799850959275898 0.31355659926798446 0.16442468980647162 0.035576438240403165 0.19523485094059401 0.17777745690366356 0.11912060083800168 0.11746948001229576 0.0033125937869217556 0.024164559770527949 0.0010079849352074579 0.22541851418580497
leaf_weight=266 147 21 28 26 53 54 114 28 27 38 169 101 20 253 34 25 102 21 31
leaf_count=266 147 21 28 26 53 54 114 28 27 38 169 101 20 253 34 25 102 21 31
internal_value=0 0.104984 0.180962 0.0717125 0.0839508 0.0591395 0.125869 0.038246 0.232925 0.107966 0.00870054 0.218314 0.266877 0.107245 0.0266411 0.0690979 0.00737223 0.0666415 0.185522
internal_weight=0 1123 342 781 634 307 166 215 176 92 435 149 48 327 189 59 130 74 52
internal_count=1558 1123 342 781 634 307 166 215 176 92 435 149 48 327 189 59 130 74 52
is_linear=0
shrinkage=0.0162334


Tree=24
num_leaves=20
num_cat=0
split_feature=8 5 8 9 6 5 9 6 4 9 4 6 11 0 11 0 5 5 5
split_gain=3856.4 4466.34 1654.14 699.375 645.033 1267.97 899.103 870.687 790.079 769.329 578.788 634.886 517.388 472.978 658.643 992.647 444.487 386.558 739.649
threshold=139.98951486646442 4.4579022988505761 170.04809025791857 9.577833525319706 11735658.578207089 4.7620114942528744 0.51237929591067821 9902527.1577227581 63331.000000000007 -1.753655154476186 38323.500000000007 11835077.960769659 168.50000000000003 4.5000000000000009 172.50000000000003 6.5000000000000009 5.0485057471264376 4.4218678160919547 4.2583620689655186
decision_type=2 2 2 2 2 2 2 2 2 2 2 2 2 2 2 2 2 2 2
left_child=16 12 10 4 5 7 9 -4 -8 -6 -3 -12 -2 -14 15 -15 -1 18 -17
right_child=1 2 3 -5 6 -7 8 -9 -10 -11 11 -13 13 14 -16 17 -18 -19 -20
leaf_value=-0.007014918582962759 0.16693964176608178 0.008195275785940587 0.20655343061686884 0.32684479027399221 0.16238992731604465 0.10043925804395099 0.17003368039800321 0.41105299156928221 -0.028500512060718044 0.35507036297659306 0.21052015128788965 0.092969669235268379 0.1563725976859249 -0.097709891742464777 0.084947208277652203 0.034667078939149457 0.046491536226370575 -0.055670224977127189 0.13312963968492439
leaf_weight=259 33 29 24 34 39 24 31 32 23 21 47 85 34 34 320 234 169 22 64
leaf_count=259 33 29 24 34 39 24 31 32 23 21 47 85 34 34 320 234 169 22 64
internal_value=0 0.104574 0.174997 0.219471 0.200653 0.256519 0.161449 0.32341 0.0854728 0.229828 0.112016 0.134825 0.0676036 0.0629736 0.058262 0.0341399 0.0141126 0.0481489 0.0558134
internal_weight=0 1130 389 228 194 80 114 56 54 60 161 132 741 708 674 354 428 320 298
internal_count=1558 1130 389 228 194 80 114 56 54 60 161 132 741 708 674 354 428 320 298
is_linear=0
shrinkage=0.0256654


Tree=25
num_leaves=20
num_cat=0
split_feature=2 7 0 5 5 4 6 6 6 5 0 11 6 6 4 5 3 9 6
split_gain=3124.95 1739.38 1161.04 856.176 1405.19 1134.95 1142.11 838.963 619.667 1043.95 631.881 508.452 619.004 656.377 722.521 565.308 823.393 838.097 530.146
threshold=1.0000000180025095e-35 1.0000000180025095e-35 3.5000000000000004 5.1943103448275876 4.797988505747127 71335.500000000015 13065321.843282802 12349674.964990528 12377489.90226884 4.6936494252873571 15.500000000000002 171.50000000000003 17681410.211012337 16895380.76330426 73666.500000000015 4.302614942528737 4.0300000000000002 -1.0446260413693664 18649174.478974834
decision_type=2 2 2 2 2 2 2 2 2 2 2 2 2 2 2 2 2 2 2
left_child=-1 -2 7 4 8 6 -6 -3 9 -4 -11 15 13 14 -13 -10 17 -17 -14
right_child=1 2 3 -5 5 -7 -8 -9 11 10 -12 12 18 -15 -16 16 -18 -19 -20
leaf_value=0.24778358495069186 0.00096077073797905428 0.22769192171954358 0.068179157445360586 0.019998873661083862 0.10961778126130266 0.065313030172341954 0.30405197193995714 0.071776069209124604 -0.0036825688985190007 0.2178282603277609 0.087970895040597033 0.031328183322962173 0.15642470151733143 -0.022820823442047149 0.096012017395182905 0.042250493994663407 0.020217808025977488 0.18508891371216363 0.072130803380939731
leaf_weight=30 162 25 394 149 20 34 21 22 102 27 24 134 37 38 104 30 99 26 80
leaf_count=30 162 25 394 149 20 34 21 22 102 27 24 134 37 38 104 30 99 26 80
internal_value=0 0.0580106 0.0647764 0.0615718 0.0668661 0.143975 0.209206 0.15471 0.0615847 0.0783264 0.156719 0.050123 0.0632932 0.0482465 0.0595934 0.0299835 0.052138 0.108568 0.0987878
internal_weight=0 1528 1366 1319 1170 75 41 47 1095 445 51 650 393 276 238 257 155 56 117
internal_count=1558 1528 1366 1319 1170 75 41 47 1095 445 51 650 393 276 238 257 155 56 117
is_linear=0
shrinkage=0.0184141


Tree=26
num_leaves=20
num_cat=0
split_feature=2 7 0 6 6 7 7 4 0 4 0 9 3 7 1 9 11 6 6
split_gain=5292.41 2258.7 1389.23 694.474 439.69 359.971 336.181 512.389 593.149 357.412 338.297 1156.65 359.243 271.736 267.628 333.202 330.461 853.379 911.491
threshold=1.0000000180025095e-35 1.0000000180025095e-35 3.5000000000000004 12349674.964990528 5642468.9750158535 0.6150000000000001 0.13500000000000004 27056.000000000004 17.500000000000004 83150.500000000015 23.500000000000004 -3.5738232698547798 4.4700000000000015 0.43000000000000005 1.0000000180025095e-35 -19.032249888494473 171.50000000000003 17681410.211012337 18649174.478974834
decision_type=2 2 2 2 2 2 2 2 2 2 2 2 2 2 2 2 2 2 2
left_child=-1 -2 3 -3 -4 6 10 -8 13 -10 14 -12 -13 -9 -6 -16 -17 -18 -19
right_child=1 2 4 -5 5 -7 7 8 9 -11 11 12 -14 -15 15 16 17 18 -20
leaf_value=0.30048338579708961 0.015641052868023284 0.23248025619464649 0.15013975499914203 0.10296318508814732 0.11362678750864807 0.029099517784555908 0.18212140181392866 0.083997696753148457 0.1689018195266567 0.086034723079516637 0.20949399755457954 0.10860742950848788 0.016538722016237281 0.015308880553364953 0.013454232025450302 0.059853256767565033 0.071599301900033038 0.19716779929561165 0.091137033449303337
leaf_weight=30 162 25 24 22 45 42 20 41 31 28 23 25 23 27 27 335 520 33 75
leaf_count=30 162 25 24 22 45 42 20 41 31 28 23 25 23 27 27 335 520 33 75
internal_value=0 0.0749973 0.0820366 0.171855 0.0788361 0.0775147 0.0791375 0.103025 0.0905683 0.129575 0.0759627 0.111464 0.0644912 0.0567242 0.0735273 0.0717046 0.0733378 0.080531 0.123535
internal_weight=0 1528 1366 47 1319 1295 1253 147 127 59 1106 71 48 68 1035 990 963 628 108
internal_count=1558 1528 1366 47 1319 1295 1253 147 127 59 1106 71 48 68 1035 990 963 628 108
is_linear=0
shrinkage=0.0168125


Tree=27
num_leaves=20
num_cat=0
split_feature=8 7 8 8 7 6 8 6 9 6 0 0 7 4 6 8 6 9 6
split_gain=10305.5 6243.91 2486.4 2373.54 1796.8 910.883 775.088 815.155 795.437 819.693 709.799 905.846 665.276 614.287 918.888 880.83 626.924 834.628 776.843
threshold=143.34003522697364 1.0000000180025095e-35 185.56680652698338 186.26716197733018 0.13500000000000004 7451419.9260887718 199.96795976958452 11547804.947042357 -1.5749642320408366 9590278.9146764148 20.500000000000004 7.5000000000000009 0.25500000000000006 44768.500000000007 18056266.227578659 183.01077563702029 15242615.170261795 -2.5690009592983687 10187184.719656659
decision_type=2 2 2 2 2 2 2 2 2 2 2 2 2 2 2 2 2 2 2
left_child=-1 -2 5 -4 6 -3 7 8 9 -5 11 -9 13 14 -7 16 17 -15 -19
right_child=1 2 3 4 -6 12 -8 10 -10 -11 -12 -13 -14 15 -16 -17 -18 18 -20
leaf_value=0.0065568810719116577 0.0079308758540992935 0.20365021058179972 0.36128456478755405 0.058432655082959008 0.32144377909599875 0.041348208925118118 0.24006391617194084 0.17694114622901913 0.24508868339368248 0.22371836718826929 0.19240920539266945 0.082898231192302177 0.17852110549305539 0.070866434593285982 0.15839137472903431 0.21641704546098467 0.061661739026430837 0.063508545453381499 0.18135244265871098
leaf_weight=435 166 35 23 25 24 125 32 51 47 20 44 148 39 73 31 27 97 27 89
leaf_count=435 166 35 23 25 24 125 32 51 47 20 44 148 39 73 31 27 97 27 89
internal_value=0 0.116881 0.13578 0.171303 0.160128 0.108695 0.149579 0.140935 0.189721 0.131893 0.122465 0.107 0.102153 0.0958027 0.0646068 0.111351 0.101432 0.121843 0.153923
internal_weight=0 1123 957 414 391 543 367 335 92 45 243 199 508 469 156 313 286 189 116
internal_count=1558 1123 957 414 391 543 367 335 92 45 243 199 508 469 156 313 286 189 116
is_linear=0
shrinkage=0.0192437


Tree=28
num_leaves=20
num_cat=0
split_feature=8 5 8 7 8 5 4 6 11 6 6 9 4 8 9 5 6 6 6
split_gain=7561.54 7350.82 2493.52 1515.47 1018.94 964.201 631.115 617.02 604.594 578.852 514.843 472.107 561.898 436.06 419.948 413.721 399.466 394.324 426.84
threshold=143.34003522697364 4.5075574712643691 175.60413555894607 1.0000000180025095e-35 183.4828770781904 4.2958620689655183 29179.500000000004 9322877.8223562334 170.50000000000003 10943263.703607431 11456222.186287986 1.9243976648736085 65254.500000000007 157.09237459897628 0.613088205077163 4.0988218390804603 16724721.129456969 19288953.772963803 14990139.918860687
decision_type=2 2 2 2 2 2 2 2 2 2 2 2 2 2 2 2 2 2 2
left_child=16 3 9 -2 5 7 15 -5 10 -3 -4 12 -11 -7 -15 -6 -1 18 -9
right_child=1 2 8 4 6 13 -8 17 -10 11 -12 -13 -14 14 -16 -17 -18 -19 -20
leaf_value=0.048574778679743767 0.047780204634025131 0.20640221423348501 0.38358628572042075 0.14482502388265303 0.13346574588945367 0.21522511569574818 0.15127619670065315 0.064974601271708038 0.23161488766451716 0.03929153411621196 0.26604641415275049 0.18444272448859278 0.14550129650884083 0.080927838787188677 0.17231725737664411 0.045574361475569931 -0.00083221772879605357 0.1187991344742787 -0.0012574488279365713
leaf_weight=366 149 51 20 31 38 21 258 99 114 30 39 37 43 44 30 38 69 28 53
leaf_count=366 149 51 20 31 38 21 258 99 114 30 39 37 43 44 30 38 69 28 53
internal_value=0 0.133234 0.207299 0.101881 0.114476 0.0896466 0.137224 0.0672123 0.256946 0.153952 0.30589 0.129633 0.101853 0.139474 0.117978 0.0895201 0.0407378 0.0538456 0.0418805
internal_weight=0 1123 334 789 640 306 334 211 173 161 59 110 73 95 74 76 435 180 152
internal_count=1558 1123 334 789 640 306 334 211 173 161 59 110 73 95 74 76 435 180 152
is_linear=0
shrinkage=0.0188352


Tree=29
num_leaves=20
num_cat=0
split_feature=8 5 8 3 4 3 4 4 8 6 3 8 6 5 5 8 0 6 6
split_gain=4349.46 4770.37 1664.55 505.976 507.279 608.681 682.704 556.36 537.57 508.699 483.012 435.476 500.918 520.327 784.447 700.845 571.715 406.246 931.79
threshold=143.34003522697364 4.5075574712643691 164.97804678515925 3.7500000000000004 39845.000000000007 5.1100000000000003 61880.500000000007 87859.000000000015 194.98803934299335 11886071.855835019 3.0500000000000003 188.59831705289579 7451419.9260887718 4.302614942528737 4.3761206896551732 163.03832852553225 23.500000000000004 16762247.853683855 18056266.227578659
decision_type=2 2 2 2 2 2 2 2 2 2 2 2 2 2 2 2 2 2 2
left_child=-1 11 -3 10 8 6 -6 -8 -5 -7 -4 12 -2 16 -15 -16 -14 -13 -19
right_child=1 2 3 4 5 9 7 -9 -10 -11 -12 17 13 14 15 -17 -18 18 -20
leaf_value=0.024533456052582951 0.2301094192479643 0.14003274224292128 0.33521166241349709 0.50426616994818041 0.22409010882688615 0.33018216453281041 0.53488092718878022 0.30902217242547969 0.28319059218591058 0.10929591241151812 0.13672796731204484 0.1606001898524857 0.041895860724817262 0.247834046928536 0.19440787510179286 -0.0026861195353374192 0.21848415233903479 -0.088674396565274496 0.14408934217183461
leaf_weight=435 25 99 23 32 29 20 26 23 20 28 34 215 304 44 33 52 22 27 67
leaf_count=435 25 99 23 32 29 20 26 23 20 28 34 215 304 44 33 52 22 27 67
internal_value=0 0.149122 0.255087 0.303557 0.331333 0.295055 0.352731 0.428866 0.419237 0.201332 0.216818 0.104265 0.0843254 0.0763153 0.133182 0.0738327 0.0538129 0.135239 0.0772317
internal_weight=0 1123 334 235 178 126 78 49 52 48 57 789 480 455 129 85 326 309 94
internal_count=1558 1123 334 235 178 126 78 49 52 48 57 789 480 455 129 85 326 309 94
is_linear=0
shrinkage=0.0334512


Tree=30
num_leaves=20
num_cat=0
split_feature=2 8 7 5 8 11 4 9 9 8 9 6 8 8 6 6 5 4 3
split_gain=3941.6 3212.47 2996.38 2825.68 1912.4 769.325 620.245 476.653 807.906 1117.51 720.074 582.593 465.19 777.35 472.461 633.892 456.733 441.362 409.116
threshold=1.0000000180025095e-35 148.19017496762976 1.0000000180025095e-35 4.4579022988505761 175.60413555894607 171.50000000000003 38323.500000000007 -5.748114822188966 0.41655735381307296 187.01270444518175 9.577833525319706 15481619.237084208 183.01077563702029 186.02612544988207 18595112.299360596 15287569.243547777 3.9949712643678166 57655.500000000007 2.7500000000000004
decision_type=2 2 2 2 2 2 2 2 2 2 2 2 2 2 2 2 2 2 2
left_child=-1 18 -3 5 6 -4 -5 -6 9 -9 11 -10 14 -14 15 16 -7 -8 -2
right_child=1 2 3 4 7 12 17 8 10 -11 -12 -13 13 -15 -16 -17 -18 -19 -20
leaf_value=0.35544666671152603 0.10600783159000242 0.0016898295793023115 0.044219026504704377 0.024686917751773976 0.14378810823287005 -0.0096802568362946081 0.2218698539267038 0.45249207598452962 0.21573756468440283 0.22399052309774706 0.30841890906305586 0.063588525124118861 0.2345056005693838 0.10616904445257548 0.17323430098935261 -0.035921765267746299 0.11386600025890173 0.11405421470308014 0.013465097472865051
leaf_weight=30 30 162 204 37 33 23 28 22 38 29 26 24 32 200 22 35 73 107 403
leaf_count=30 30 162 204 37 33 23 28 22 38 29 26 24 32 200 22 35 73 107 403
internal_value=0 0.0756222 0.0976658 0.11433 0.169384 0.0821768 0.112381 0.226387 0.245997 0.32256 0.201625 0.156841 0.102289 0.123871 0.0695651 0.052155 0.0842664 0.136416 0.0198768
internal_weight=0 1528 1095 933 344 589 172 172 139 51 88 62 385 232 153 131 96 135 433
internal_count=1558 1528 1095 933 344 589 172 172 139 51 88 62 385 232 153 131 96 135 433
is_linear=0
shrinkage=0.0241762


Tree=31
num_leaves=20
num_cat=0
split_feature=8 5 7 8 7 0 8 1 6 5 6 9 9 8 6 9 6 6 3
split_gain=2499.2 2504.89 1866.78 1511.86 703.299 608.695 739.74 526.556 508.03 491.207 960.959 452.751 522.504 876.271 871.599 579.352 452.136 724.865 1077.43
threshold=139.98951486646442 4.4579022988505761 1.0000000180025095e-35 175.60413555894607 1.0000000180025095e-35 23.500000000000004 183.7125168109998 1.5000000000000002 18649174.478974834 4.6135919540229891 15390102.1221816 -5.748114822188966 0.32633437140969868 187.85315175828285 11547804.947042357 9.2279651762065509 19068544.791633781 15933645.524924034 3.9300000000000002
decision_type=2 2 2 2 2 2 2 2 2 2 2 2 2 2 2 2 2 2 2
left_child=-1 4 -3 7 -2 6 8 9 -6 10 -4 -5 13 -13 -14 -16 17 -8 -19
right_child=1 2 3 11 5 -7 16 -9 -10 -11 -12 12 14 -15 15 -17 -18 18 -20
leaf_value=0.015174715827642318 0.0091042650640888855 -0.06175290305043131 0.19297066718339603 0.11572823719905173 0.019192649278610401 0.15773319429615251 0.075400535416018682 0.16269068340432069 0.11153908727942871 0.03374056631954666 0.0025855672489874934 0.39153743396683111 0.29140557660481875 0.18752713983876126 0.090512506621312661 0.24016050883079992 0.017031107661372065 0.024014020304795269 0.23080123469227481
leaf_weight=428 140 26 39 34 225 38 192 49 38 76 23 20 27 27 48 20 44 20 44
leaf_count=428 140 26 39 34 225 38 192 49 38 76 23 20 27 27 48 20 44 20 44
internal_value=0 0.0814579 0.129461 0.143157 0.0562579 0.0672421 0.0611343 0.0969062 0.0325355 0.0735479 0.122344 0.192298 0.210632 0.27434 0.179113 0.134527 0.086206 0.0980955 0.16618
internal_weight=0 1130 389 363 741 601 563 187 263 138 62 176 142 47 95 68 300 256 64
internal_count=1558 1130 389 363 741 601 563 187 263 138 62 176 142 47 95 68 300 256 64
is_linear=0
shrinkage=0.0233604


Tree=32
num_leaves=20
num_cat=0
split_feature=2 8 5 7 8 9 8 6 5 5 8 8 5 8 0 8 7 3 8
split_gain=2615.37 1482.81 1556.21 1137.01 798.837 749.933 453.398 444.186 642.958 694.872 481.967 952.274 404.531 666.486 613.258 620.933 391.582 506.86 454.185
threshold=1.0000000180025095e-35 148.19017496762976 4.3176149425287358 1.0000000180025095e-35 176.99689804669933 -7.4812092847342475 177.94481923760014 18649174.478974834 4.7620114942528744 4.8068678160919545 190.72310441773158 185.56680652698338 4.0988218390804603 194.86479584368612 12.500000000000002 188.42706586222991 1.0000000180025095e-35 4.1700000000000008 192.43013363214041
decision_type=2 2 2 2 2 2 2 2 2 2 2 2 2 2 2 2 2 2 2
left_child=-1 -2 6 -4 -5 -6 -3 8 10 -10 11 -7 16 14 -14 -16 -8 -18 -19
right_child=1 2 3 4 5 7 12 -9 9 -11 -12 -13 13 -15 15 -17 17 18 -20
leaf_value=0.38545252428480581 0.014115285494770065 0.0064507499382348323 -0.0073140734487279358 0.10820676549241653 0.04472499023992834 0.2420432783098885 -0.021613770717555679 0.089438836355328177 -0.0051435366038013793 0.2555093760869323 0.22044935335442847 0.53089711108419479 0.15424162189445939 -0.058559590614938768 -0.059117056126282257 0.11327354739425395 0.18643957291711433 0.020137702967658041 0.16245810450100776
leaf_weight=30 433 177 58 225 30 30 25 23 20 28 49 23 65 59 52 44 78 68 41
leaf_count=30 433 177 58 225 30 30 25 23 20 28 49 23 65 59 52 44 78 68 41
internal_value=0 0.0670242 0.0879461 0.133017 0.152034 0.200612 0.0519778 0.227644 0.248836 0.146904 0.296803 0.367395 0.0706313 0.0385484 0.0741345 0.0198953 0.103925 0.120708 0.0736711
internal_weight=0 1528 1095 486 428 203 609 173 150 48 102 53 432 220 161 96 212 187 109
internal_count=1558 1528 1095 486 428 203 609 173 150 48 102 53 432 220 161 96 212 187 109
is_linear=0
shrinkage=0.0337741


Tree=33
num_leaves=20
num_cat=0
split_feature=2 8 5 7 8 5 4 4 4 5 5 6 11 3 6 6 6 4 9
split_gain=1673.84 950.069 848.107 826.787 891.329 582.029 444.347 436.393 377.789 340.45 394.65 330.834 316.216 493.102 460.523 397.882 374.78 326.688 531.919
threshold=1.0000000180025095e-35 126.9727956640927 4.4670977011494264 1.0000000180025095e-35 175.60413555894607 4.5786206896551738 23796.000000000004 38323.500000000007 46531.000000000007 5.0485057471264376 4.5837068965517247 10839361.397180883 173.50000000000003 3.5500000000000003 7451419.9260887718 8262640.4978903877 8920731.1809197422 44768.500000000007 -5.1123370360206142
decision_type=2 2 2 2 2 2 2 2 2 2 2 2 2 2 2 2 2 2 2
left_child=-1 9 12 -4 7 -6 -7 -5 -9 10 -2 -8 14 -14 -3 -16 -17 18 -18
right_child=1 2 3 4 5 6 11 8 -10 -11 -12 -13 13 -15 15 16 17 -19 -20
leaf_value=0.28249554332445542 0.012556428295255627 0.16246746766342934 -0.071915181577605194 -0.029631945208673394 0.30928181127929399 0.25480647856838762 0.037510703060734306 0.20864010193984484 0.070847646608614451 0.04266264146771695 -0.072507263693761426 0.15024042376083899 -0.04047295857051561 0.1181236848207577 -0.09674493351413907 0.15973369258274081 0.069013745633707019 0.045720482619407067 -0.044802410155144509
leaf_weight=30 154 26 25 36 23 27 36 22 142 157 79 81 23 102 23 22 60 376 114
leaf_count=30 154 26 25 36 23 27 36 22 142 157 79 81 23 102 23 22 60 376 114
internal_value=0 0.0491216 0.0634043 0.100252 0.11198 0.164749 0.141664 0.0679185 0.089332 0.00744526 -0.0162849 0.115554 0.0440418 0.0889419 0.0350039 0.029434 0.0345077 0.0294986 -0.00555546
internal_weight=0 1528 1138 392 367 167 144 200 164 390 233 117 746 125 621 595 572 550 174
internal_count=1558 1528 1138 392 367 167 144 200 164 390 233 117 746 125 621 595 572 550 174
is_linear=0
shrinkage=0.030941


Tree=34
num_leaves=20
num_cat=0
split_feature=8 7 5 8 9 9 3 8 6 6 5 5 8 6 5 8 11 6 6
split_gain=1357.61 1560.47 1289.17 853.1 441.139 716.276 417.34 1017.41 997.644 412.023 537.442 405.938 389.94 452.55 474.076 385.238 379.837 564.252 907.916
threshold=139.98951486646442 1.0000000180025095e-35 4.4579022988505761 168.82145082247436 9.577833525319706 3.7629105022121769 4.870000000000001 187.01270444518175 11063036.924396457 16985507.737600438 4.6135919540229891 4.706580459770116 177.94481923760014 8869103.337587079 4.2583620689655186 188.82720599897289 173.50000000000003 15933645.524924034 17363167.69699844
decision_type=2 2 2 2 2 2 2 2 2 2 2 2 2 2 2 2 2 2 2
left_child=-1 -2 12 9 5 6 7 11 -8 10 -4 -5 13 -3 -15 -7 17 -14 -19
right_child=1 2 3 4 -6 15 8 -9 -10 -11 -12 -13 16 14 -16 -17 -18 18 -20
leaf_value=0.010596577199605835 -0.0084981585861797996 0.12798384861851236 0.13884177067792552 0.14459138534576416 0.23732511000286197 -0.042734080267200186 0.092737239711378039 0.041723219131620679 0.32663411087863103 -0.036931037269095052 0.034780159259938458 0.30186908200250007 0.03157932958627771 -0.018061687184704862 0.070958599091531502 0.11729414247607264 0.12157274042006105 0.21942652711538319 0.0572170209414022
leaf_weight=428 166 25 65 24 32 20 22 45 27 21 67 20 208 122 59 20 74 32 81
leaf_count=428 166 25 65 24 32 20 22 45 27 21 67 20 208 122 59 20 74 32 81
internal_value=0 0.0645155 0.0770884 0.115453 0.149191 0.133346 0.161192 0.127923 0.221619 0.0691466 0.0860226 0.216081 0.0539164 0.0251584 0.010956 0.03728 0.0689142 0.0567749 0.103152
internal_weight=0 1130 964 363 210 178 138 89 49 153 132 44 601 206 181 40 395 321 113
internal_count=1558 1130 964 363 210 178 138 89 49 153 132 44 601 206 181 40 395 321 113
is_linear=0
shrinkage=0.0257829


Tree=35
num_leaves=20
num_cat=0
split_feature=2 0 8 7 8 6 3 6 11 8 8 6 4 8 6 8 4 4 3
split_gain=1101.81 1041.67 731.244 680.037 346.056 423.555 331.108 273.105 256.429 590.491 393.835 395.856 522.529 433.8 395.197 391.351 429.546 419.101 490.964
threshold=1.0000000180025095e-35 1.5000000000000002 148.19017496762976 1.0000000180025095e-35 199.96795976958452 13642463.160640933 2.7500000000000004 16724721.129456969 171.50000000000003 193.93541042138136 191.42469737279583 20497623.933938187 76976.000000000015 180.60487661656086 15156047.35014268 194.86479584368612 71335.500000000015 38323.500000000007 5.5500000000000007
decision_type=2 2 2 2 2 2 2 2 2 2 2 2 2 2 2 2 2 2 2
left_child=-1 -2 6 -4 8 -6 -3 -8 9 10 11 12 14 -14 -5 17 -17 -10 -19
right_child=1 2 3 4 5 -7 7 -9 15 -11 -12 -13 13 -15 -16 16 -18 18 -20
leaf_value=0.18772380518503617 0.20179099810382345 0.08403795456470807 -0.0053209810051654633 -0.014136450528490335 0.045081022002733923 0.20495963442208762 0.0068681110951971476 -0.048470998000630192 0.02167915419708907 0.12435460164857599 -0.083180833204577739 -0.068535554735459608 0.045249448674016868 0.15863373052957544 0.070932121582915147 0.055719789108609599 -0.062124048278341372 0.070270326294013488 0.16609759067009827
leaf_weight=30 23 30 161 123 22 20 330 68 97 38 22 25 64 32 48 48 33 306 38
leaf_count=30 23 30 161 123 22 20 330 68 97 38 22 25 64 32 48 48 33 306 38
internal_value=0 0.0338542 0.0312877 0.0423365 0.0507129 0.121214 0.00348502 -0.00258681 0.047325 0.0307395 0.0194103 0.0271398 0.0360981 0.0830442 0.00974245 0.0585091 0.00770934 0.0678397 0.0808559
internal_weight=0 1528 1505 1077 916 42 428 398 874 352 314 292 267 96 171 522 81 441 344
internal_count=1558 1528 1505 1077 916 42 428 398 874 352 314 292 267 96 171 522 81 441 344
is_linear=0
shrinkage=0.0251442


Tree=36
num_leaves=20
num_cat=0
split_feature=8 5 8 7 8 6 5 9 6 6 9 5 6 6 6 3 5 9 9
split_gain=3856.24 4430.68 1518.31 499.584 510.402 573.301 643.107 642.917 499.175 843.547 993.215 589.934 403.764 391.804 431.322 403.728 362.627 337.919 335.009
threshold=143.34003522697364 4.5075574712643691 164.97804678515925 1.0000000180025095e-35 185.56680652698338 7983119.0258297483 4.2958620689655183 0.613088205077163 11735658.578207089 10797175.882738866 -1.9722046227257628 4.797988505747127 9534914.9623232763 11322465.221414626 9749834.0080043152 4.1100000000000003 5.0485057471264376 -8.0671787744058872 0.82368134067649312
decision_type=2 2 2 2 2 2 2 2 2 2 2 2 2 2 2 2 2 2 2
left_child=16 3 -3 -2 5 -5 -7 -8 9 10 -4 18 -12 14 15 -6 17 -1 -10
right_child=1 2 8 4 13 6 7 -9 11 -11 12 -13 -14 -15 -16 -17 -18 -19 -20
leaf_value=0.045287631799408729 0.014845332370507999 0.06480469042117154 0.045288993015284558 0.12386167604158489 0.12481483810932034 0.013289412404908187 0.031413189421003969 0.12932603099361867 0.13951881382696804 0.26788550738607708 0.23518415440714871 0.1926269675160957 0.12892094689241865 0.057493434823432554 0.15486885749716656 0.011786529257488677 0.02553999566249843 -0.016955762588874181 0.071650010819913679
leaf_weight=34 149 99 22 24 21 223 57 38 48 28 31 35 20 221 34 22 169 232 51
leaf_count=34 149 99 22 24 21 223 57 38 48 28 31 35 20 221 34 22 169 232 51
internal_value=0 0.0690829 0.125374 0.0452536 0.0523331 0.0369625 0.030404 0.0705783 0.150891 0.181844 0.148842 0.12756 0.193512 0.0699732 0.105792 0.0669864 0.00441908 -0.00899984 0.104556
internal_weight=0 1123 334 789 640 342 318 95 235 101 73 134 51 298 77 43 435 266 99
internal_count=1558 1123 334 789 640 342 318 95 235 101 73 134 51 298 77 43 435 266 99
is_linear=0
shrinkage=0.0184387


Tree=37
num_leaves=20
num_cat=0
split_feature=8 5 8 7 8 5 11 0 4 8 6 4 9 6 6 1 4 4 0
split_gain=7099.47 6408.52 1982.77 1715.11 1239.33 1012.15 702.462 1363.77 721.468 697.382 768.109 605.558 637.709 587.111 653.97 644.106 569.479 554.47 520.645
threshold=143.34003522697364 4.5075574712643691 164.97804678515925 1.0000000180025095e-35 183.4828770781904 4.2958620689655183 170.50000000000003 18.500000000000004 79562.000000000015 179.06999542780605 12490625.506127967 56857.500000000007 -13.042863968518404 19068544.791633781 16259181.316770241 2.5000000000000004 80254.500000000015 106129.50000000001 22.500000000000004
decision_type=2 2 2 2 2 2 2 2 2 2 2 2 2 2 2 2 2 2 2
left_child=-1 3 -3 -2 5 18 9 8 -8 -4 -11 -6 -13 14 15 16 -14 -18 -5
right_child=1 2 6 4 11 -7 7 -9 -10 10 -12 12 13 -15 -16 -17 17 -19 -20
leaf_value=0.0023496903134563366 0.0053720384269144838 0.097520494122027401 0.17089565040777305 0.016161186443866108 0.076489800350276124 0.10761562496429584 0.19117193283207173 0.086439970077162087 0.31554944059637402 0.37997270848637349 0.22476376136030418 0.036131753370278054 0.10507548435150701 0.057122620294619973 0.24677546725144456 0.050958394783418806 0.26207535142708477 0.12547019011139604 0.11685476993870229
leaf_weight=435 149 99 27 187 138 95 85 45 25 25 28 25 37 26 30 26 32 20 24
leaf_count=435 149 99 27 187 138 95 85 45 25 25 28 25 37 26 30 26 32 20 24
internal_value=0 0.099195 0.173921 0.067562 0.0820406 0.0524514 0.206107 0.180827 0.21944 0.255086 0.297976 0.109149 0.132144 0.146181 0.16215 0.140074 0.166108 0.209535 0.0276145
internal_weight=0 1123 334 789 640 306 235 155 110 80 53 334 196 171 145 115 89 52 211
internal_count=1558 1123 334 789 640 306 235 155 110 80 53 334 196 171 145 115 89 52 211
is_linear=0
shrinkage=0.0203524


Tree=38
num_leaves=20
num_cat=0
split_feature=8 5 7 8 9 9 3 6 9 9 6 5 4 6 4 7 8 6 6
split_gain=1151.1 1287.39 780.418 756.911 341.853 500.227 399.326 647.261 971.915 395.188 298.231 384.782 613.176 429.272 379.252 264.845 331.11 438.658 497.446
threshold=139.98951486646442 4.4579022988505761 1.0000000180025095e-35 168.82145082247436 9.577833525319706 3.7629105022121769 3.77 10187184.719656659 0.51237929591067821 -4.3893880615286642 16985507.737600438 4.6135919540229891 79007.500000000015 11626713.135395275 81438.000000000015 1.0000000180025095e-35 183.4828770781904 18595112.299360596 17296041.924873717
decision_type=2 2 2 2 2 2 2 2 2 2 2 2 2 2 2 2 2 2 2
left_child=-1 15 -3 10 5 6 -5 -8 9 -9 11 14 13 -13 -4 -2 17 18 -17
right_child=1 2 3 4 -6 -7 7 8 -10 -11 -12 12 -14 -15 -16 16 -18 -19 -20
leaf_value=0.006154430384165536 0.0034559477827476744 -0.053001661846299515 0.19684829975931747 0.081033420335630962 0.25668520438050912 0.048507091099613125 0.079027286018782811 0.22913320087053868 0.093781225733789983 0.4070783365985855 -0.038023770374367119 0.064473341189382735 0.17135021318462551 -0.1285479291618116 0.037376852584199205 0.023709954879719233 0.07275014185288517 0.11802354119997983 -0.13558720429175417
leaf_weight=428 140 26 43 34 32 40 29 21 25 29 21 23 22 22 22 215 322 43 21
leaf_count=428 140 26 43 34 32 40 29 21 25 29 21 23 22 22 22 215 322 43 21
internal_value=0 0.0663117 0.112333 0.124175 0.16268 0.14578 0.173975 0.20436 0.252821 0.332341 0.0713255 0.088722 0.0361871 -0.0298926 0.142873 0.0421521 0.0511662 0.0262556 0.00953521
internal_weight=0 1130 389 363 210 178 138 104 75 50 153 132 67 45 65 741 601 279 236
internal_count=1558 1130 389 363 210 178 138 104 75 50 153 132 67 45 65 741 601 279 236
is_linear=0
shrinkage=0.0312398


Tree=39
num_leaves=20
num_cat=0
split_feature=2 8 5 7 8 9 6 8 8 9 9 8 11 6 3 3 6 8 3
split_gain=1313.18 847.487 1023.45 527.799 446.285 653.456 412.778 780.794 472.705 374.029 528.714 365.8 425.415 522.069 395.715 1006.12 468.681 401.06 743.858
threshold=1.0000000180025095e-35 148.19017496762976 4.3176149425287358 1.0000000180025095e-35 176.99689804669933 -7.4812092847342475 18649174.478974834 186.98010970389535 184.13784706897431 0.613088205077163 -4.2049341416051051 177.94481923760014 173.50000000000003 16724721.129456969 4.4900000000000011 4.6300000000000008 11322465.221414626 197.00547942678568 3.77
decision_type=2 2 2 2 2 2 2 2 2 2 2 2 2 2 2 2 2 2 2
left_child=-1 -2 11 -4 9 -6 7 8 -7 10 -5 -3 14 -14 16 -16 -13 18 -18
right_child=1 2 3 4 5 6 -8 -9 -10 -11 -12 12 13 -15 15 -17 17 -19 -20
leaf_value=0.17254246285015096 0.0036298311295481474 -0.0054288777689758668 0.0015673181842206234 0.064375510589449306 0.0011614528678035589 0.13995856661992187 0.025018980726677194 0.083822661426180944 0.26895064305446387 0.080454132694251418 -0.024888421204356977 0.092841234588713559 0.10827870535950976 -0.012065170253024927 -0.1402878871322614 0.0177017607834326 -0.028648300147409357 -0.054911319802372738 0.078945669918515232
leaf_weight=30 433 177 58 69 30 38 23 92 20 101 55 56 60 23 22 120 49 27 75
leaf_count=30 433 177 58 69 30 38 23 92 20 101 55 56 60 23 22 120 49 27 75
internal_value=0 0.0290647 0.0391224 0.0623647 0.0706035 0.0936916 0.109737 0.122727 0.184439 0.049773 0.0247826 0.0205745 0.0312286 0.0749304 0.0208354 -0.00677551 0.0397761 0.0200964 0.0364287
internal_weight=0 1528 1095 486 428 203 173 150 58 225 124 609 432 83 349 142 207 151 124
internal_count=1558 1528 1095 486 428 203 173 150 58 225 124 609 432 83 349 142 207 151 124
is_linear=0
shrinkage=0.0214764


Tree=40
num_leaves=20
num_cat=0
split_feature=2 0 6 7 3 0 9 3 9 7 7 6 0 6 6 6 6 1 9
split_gain=1161.81 851.354 403.249 320.271 333.911 325.514 1211.69 407.78 252.04 217.097 619.011 397.151 406.068 318.761 188.923 448.859 268.315 226.525 474.984
threshold=1.0000000180025095e-35 3.5000000000000004 12349674.964990528 1.0000000180025095e-35 2.3300000000000005 23.500000000000004 -3.5738232698547798 4.4700000000000015 -19.032249888494473 0.13500000000000004 0.36500000000000005 13529097.969252218 16.500000000000004 16350487.138834247 6634939.9060815731 7693231.0482903635 8262640.4978903877 2.5000000000000004 11.837312437592963
decision_type=2 2 2 2 2 2 2 2 2 2 2 2 2 2 2 2 2 2 2
left_child=-1 2 -2 -3 -5 8 -7 -8 -6 14 11 12 -11 -12 -10 -16 -17 -18 -19
right_child=1 3 -4 4 5 6 7 -9 9 10 13 -13 -14 -15 15 16 17 18 -20
leaf_value=0.2100632026972955 0.21686080595805243 -0.002323255030281295 0.067684349296106797 0.134059253382703 -0.040857552511818426 0.23975697919699424 0.094601990612390663 -0.049000342188816222 -0.027339033483822609 -0.0065047587616149129 0.044409204645620794 0.19029852351875484 0.15838854109554851 -0.074824609600442404 0.14076736115691837 -0.06008767764183072 0.023525811420047945 0.065021818053282596 -0.059836134955824502
leaf_weight=30 28 155 26 27 33 27 28 31 40 25 69 34 20 22 28 24 643 243 25
leaf_count=30 28 155 26 27 33 27 28 31 40 25 69 34 20 22 28 24 643 243 25
internal_value=0 0.038663 0.145035 0.0347661 0.0391246 0.0371406 0.0884103 0.0191499 0.0334846 0.0355761 0.0640788 0.119941 0.0667812 0.0155834 0.0307451 0.0331577 0.0299352 0.0323068 0.0533746
internal_weight=0 1528 54 1474 1319 1292 86 59 1206 1173 170 79 45 91 1003 963 935 911 268
internal_count=1558 1528 54 1474 1319 1292 86 59 1206 1173 170 79 45 91 1003 963 935 911 268
is_linear=0
shrinkage=0.0272761


Tree=41
num_leaves=20
num_cat=0
split_feature=8 5 8 5 3 0 4 4 6 6 5 0 3 4 9 9 0 3 8
split_gain=2271.33 2379.5 864.043 388.468 387.33 986.193 1231.45 824.566 692.771 767.85 385.263 337.721 316.086 305.742 433.277 712.056 454.233 614.525 485.672
threshold=143.34003522697364 4.5000574712643688 163.70271269938397 4.6891954022988509 4.2100000000000009 7.5000000000000009 39414.500000000007 39845.000000000007 11765518.919414986 9628448.7900722083 4.706580459770116 18.500000000000004 3.8500000000000001 62907.500000000007 1.365927671904082 -0.068092367184884733 10.500000000000002 4.370000000000001 169.84062931515112
decision_type=2 2 2 2 2 2 2 2 2 2 2 2 2 2 2 2 2 2 2
left_child=-1 13 3 12 5 -4 -7 10 9 -9 -6 -10 -3 14 15 16 17 -2 -18
right_child=1 2 4 -5 7 6 -8 8 11 -11 -12 -13 -14 -15 -16 -17 18 -19 -20
leaf_value=0.0097111847187486902 -0.04477224403798085 0.11070309398747021 0.16226664817612413 -0.0082907655704709919 0.13240296397723239 -0.052318532945367618 0.089457961767754265 0.07989943561093267 0.089875624035986326 0.21539718779001654 0.22946317458544685 0.011166312323950841 0.041049193397171647 0.046653959893151957 0.0047455765357856255 0.1256133663375428 0.12124800405682949 0.041234832259119808 0.036577940353096791
leaf_weight=435 38 25 27 24 21 21 57 22 36 20 20 22 47 403 140 22 20 46 112
leaf_count=435 38 25 27 24 21 21 57 22 36 20 20 22 47 403 140 22 20 46 112
internal_value=0 0.0523088 0.0871233 0.0468532 0.102838 0.0798249 0.0512874 0.119976 0.0954691 0.144422 0.179749 0.0600204 0.0652346 0.0370635 0.0268387 0.0398346 0.0310979 0.00232687 0.0494067
internal_weight=0 1123 342 96 246 105 78 141 100 42 41 58 72 781 378 238 216 84 132
internal_count=1558 1123 342 96 246 105 78 141 100 42 41 58 72 781 378 238 216 84 132
is_linear=0
shrinkage=0.0158269


Tree=42
num_leaves=20
num_cat=0
split_feature=8 5 8 5 3 6 0 6 9 5 4 4 9 5 4 8 8 4 0
split_gain=941.193 853.893 463.281 390.903 350.088 293.438 607.152 572.696 459.746 433.579 368.587 340.267 284.855 254.489 342.081 354.398 341.451 276.82 260.743
threshold=126.9727956640927 4.5000574712643688 163.70271269938397 4.6891954022988509 3.8300000000000005 11735658.578207089 22.500000000000004 11063036.924396457 -3.9740268906327381 4.7781034482758633 75680.000000000015 60308.000000000007 -0.80113097803099798 5.0485057471264376 28565.500000000004 113.02174836442532 114.01885951831511 94096.000000000015 6.5000000000000009
decision_type=2 2 2 2 2 2 2 2 2 2 2 2 2 2 2 2 2 2 2
left_child=13 -2 3 4 -3 7 9 8 -4 10 12 -10 -7 14 15 -1 17 -16 -15
right_child=1 2 5 -5 -6 6 -8 -9 11 -11 -12 -13 -14 18 16 -17 -18 -19 -20
leaf_value=-0.026239781312314615 0.039381012537853421 0.16867266837355899 -0.003349533017523726 -0.033417084129131192 0.039558256206125207 -0.057122660761631132 -0.05132552066783902 0.30336507509631605 0.098205640791330304 0.20619899708638209 0.16573332317041967 0.2392693055768334 0.086766420759847557 0.13188044705192306 -0.024593959575811015 0.15386254295250326 -0.083989157836011435 0.090161459273272321 0.017614205430284826
leaf_weight=20 790 29 20 38 57 20 23 20 34 36 30 29 34 21 97 20 75 24 141
leaf_count=20 790 29 20 38 57 20 23 20 34 36 30 29 34 21 97 20 75 24 141
internal_value=0 0.0571447 0.0950726 0.047391 0.0830968 0.119107 0.0910649 0.15804 0.123022 0.118356 0.0807096 0.16314 0.0334742 0.00322769 -0.0168156 0.0638114 -0.03327 -0.00183255 0.0324265
internal_weight=0 1160 370 124 86 246 143 103 83 120 84 63 54 398 236 40 196 121 162
internal_count=1558 1160 370 124 86 246 143 103 83 120 84 63 54 398 236 40 196 121 162
is_linear=0
shrinkage=0.0302533


Tree=43
num_leaves=20
num_cat=0
split_feature=11 8 5 6 6 8 3 8 8 4 8 6 9 9 9 3 3 6 9
split_gain=886.434 568.597 560.883 330.269 506.987 414.142 405.738 539.797 522.536 557.354 401.039 383.836 406.029 606.519 495.942 363.699 329.248 329.049 320.721
threshold=165.50000000000003 120.7631476579941 4.3069540229885073 11322465.221414626 11712609.229522718 197.00547942678568 2.8700000000000006 167.259167924705 195.96476940778146 57224.500000000007 176.08411391635124 12870528.156975364 -5.3324666495912139 1.8311280267256669 -2.0779420235158281 5.1300000000000008 4.2500000000000009 17681410.211012337 -5.9471637325964535
decision_type=2 2 2 2 2 2 2 2 2 2 2 2 2 2 2 2 2 2 2
left_child=-1 -2 3 5 -5 18 -6 -8 9 10 -9 -11 -13 14 -14 -12 -10 -15 -3
right_child=1 2 -4 4 6 -7 7 8 16 11 15 12 13 17 -16 -17 -18 -19 -20
leaf_value=0.23518391640938724 -0.0035623829718668672 0.11961905502345246 0.065851933951440705 -0.14711481775369523 -0.093184594924745817 0.18413852823107868 -0.090493795061929602 -0.11888822855366663 -0.1303847437822164 0.21516766649990279 0.065088679432858162 0.1648158323755041 0.060569074815902138 0.045497011201481904 -0.15548825849236375 -0.073025794229626406 0.025659441582901604 0.21769665517275941 0.010387227359403917
leaf_weight=23 329 38 610 21 33 24 38 22 28 24 82 37 22 27 22 26 28 20 104
leaf_count=23 329 38 610 21 33 24 38 22 28 24 82 37 22 27 22 26 28 20 104
internal_value=0 0.0339326 0.0441614 0.0219613 0.00707866 0.0605128 0.0149957 0.0244902 0.0374174 0.0552461 0.00633123 0.0970812 0.07494 0.038397 -0.0474596 0.0318389 -0.0523627 0.118773 0.0396183
internal_weight=0 1535 1206 596 430 166 409 376 338 282 130 152 128 91 44 108 56 47 142
internal_count=1558 1535 1206 596 430 166 409 376 338 282 130 152 128 91 44 108 56 47 142
is_linear=0
shrinkage=0.0321773


Tree=44
num_leaves=20
num_cat=0
split_feature=2 0 8 0 5 9 5 5 5 8 8 5 0 8 3 9 5 5 5
split_gain=747.88 562.858 457.881 607.05 555.291 456.746 400.584 290.001 266.849 217.959 468.577 216.532 358.889 446.829 506.67 204.737 288.545 672.057 407.344
threshold=1.0000000180025095e-35 4.5000000000000009 176.99689804669933 7.5000000000000009 4.4793678160919557 -10.24359159973943 4.6306609195402304 4.5786206896551738 4.1884482758620694 120.7631476579941 159.91092179391714 4.6378735632183918 19.500000000000004 187.01270444518175 4.8100000000000014 -19.626330985588854 4.1282471264367819 4.1508908045977018 4.1706609195402313
decision_type=2 2 2 2 2 2 2 2 2 2 2 2 2 2 2 2 2 2 2
left_child=-1 6 3 -3 15 9 8 -6 -2 -5 -11 -9 13 -13 -15 -4 -17 -18 -19
right_child=1 2 4 5 7 -7 -8 11 -10 10 -12 12 -14 14 -16 16 17 18 -20
leaf_value=0.17618092681584177 0.14362451833132026 -0.053167430774502152 -0.070918478130877233 0.0080646412917209902 0.18117158099518485 0.0079171408442544108 0.21830559498546795 -0.012125717040430728 -0.0012153636870675323 0.22885454865441904 0.050218042733740947 0.20280854795007033 -0.02894621852563278 -0.0051125751156926051 0.16516165773308492 0.050067268155447257 -0.13489588242105638 0.14128942161988964 0.0068865923240568816
leaf_weight=30 20 133 20 24 25 588 21 24 27 21 36 32 20 38 27 243 28 23 178
leaf_count=30 20 133 20 24 25 588 21 24 27 21 36 32 20 38 27 243 28 23 178
internal_value=0 0.0246571 0.0207206 0.00547551 0.0393019 0.017134 0.109178 0.0868332 0.0604186 0.0840413 0.116031 0.0701065 0.0869747 0.110876 0.0656167 0.023265 0.0272558 0.00304972 0.022266
internal_weight=0 1528 1460 802 658 669 68 166 47 81 57 141 117 97 65 492 472 229 201
internal_count=1558 1528 1460 802 658 669 68 166 47 81 57 141 117 97 65 492 472 229 201
is_linear=0
shrinkage=0.0300541


Tree=45
num_leaves=20
num_cat=0
split_feature=8 7 5 8 11 8 9 0 8 3 0 8 11 11 9 3 5 4 8
split_gain=2019.02 1910.59 1353.8 907.186 641.13 595.302 672.573 469.466 432.796 418.577 560.757 608.023 503.529 958.658 403.255 319.087 442.137 317.669 768.064
threshold=143.34003522697364 1.0000000180025095e-35 4.3176149425287358 177.94481923760014 173.50000000000003 176.99689804669933 -5.748114822188966 7.5000000000000009 188.42706586222991 5.6900000000000004 19.500000000000004 183.01077563702029 172.50000000000003 170.50000000000003 0.613088205077163 4.2100000000000009 4.6005459770114951 98073.500000000015 197.93518523559524
decision_type=2 2 2 2 2 2 2 2 2 2 2 2 2 2 2 2 2 2 2
left_child=-1 -2 3 7 17 14 -7 -3 -6 10 11 -8 13 -13 -4 16 -16 18 -5
right_child=1 2 5 4 8 6 9 -9 -10 -11 -12 12 -14 -15 15 -17 -18 -19 -20
leaf_value=0.0054978975185479518 -0.0054893960005818407 -0.060995467138946192 0.044479721606934863 0.029184316700388024 0.18207620483600892 0.043974496222523349 0.24780778781946411 0.020453465977698197 0.079048733919756337 0.046867092777290099 0.062871880097271599 0.18573461054387597 0.19425143874364575 0.040582842280230597 0.10854449421717463 0.12265347744890502 -0.005523570266778694 0.099648764704787937 0.13698332187418288
leaf_weight=435 166 30 131 235 20 43 20 125 46 20 28 28 33 35 26 57 21 34 25
leaf_count=435 166 30 131 235 20 43 20 125 46 20 28 28 33 35 26 57 21 34 25
internal_value=0 0.0524173 0.0624617 0.0420884 0.0581909 0.0861998 0.109063 0.00468916 0.110269 0.126129 0.137138 0.155064 0.135742 0.105095 0.0660607 0.0932443 0.0575779 0.0464998 0.0395496
internal_weight=0 1123 957 515 360 442 207 155 66 164 144 116 96 63 235 104 47 294 260
internal_count=1558 1123 957 515 360 442 207 155 66 164 144 116 96 63 235 104 47 294 260
is_linear=0
shrinkage=0.0184898


Tree=46
num_leaves=20
num_cat=0
split_feature=8 7 5 8 8 5 0 3 3 4 3 3 8 8 0 0 5 0 8
split_gain=4607.83 3233.81 2499 1494.19 829.949 751.459 573.394 544.005 531.677 478.075 399.974 765.247 526.631 396.599 336.197 443.739 474.637 446.416 328.397
threshold=143.34003522697364 1.0000000180025095e-35 4.5075574712643691 168.82145082247436 183.4828770781904 4.2958620689655183 22.500000000000004 4.910000000000001 4.7100000000000009 87125.500000000015 4.870000000000001 5.8500000000000005 193.93541042138136 195.37933140919827 19.500000000000004 15.500000000000002 4.7556896551724144 7.5000000000000009 157.09237459897628
decision_type=2 2 2 2 2 2 2 2 2 2 2 2 2 2 2 2 2 2 2
left_child=-1 -2 4 -4 5 6 -3 8 -6 13 14 12 -12 -9 15 16 17 -5 -7
right_child=1 2 3 10 7 18 -8 9 -10 -11 11 -13 -14 -15 -16 -17 -18 -19 -20
leaf_value=-0.011523215419615464 -0.01488244733494206 -0.0035595643681664868 0.045522773919827397 0.15061813665401444 0.055887979647026909 0.10055779279639188 0.068830494249841029 -0.016379756634427794 0.13094266284906503 0.080700966399759516 0.12506859341696616 0.061529533599594483 0.21674699347062773 0.055822049672216316 0.041907326523753868 0.1472608537532237 0.026425803551164376 0.069327466159536347 0.038087520784515272
leaf_weight=435 166 187 122 24 222 21 24 50 20 21 29 20 21 21 21 31 20 29 74
leaf_count=435 166 187 122 24 222 21 24 50 20 21 29 20 21 21 21 31 20 29 74
internal_value=0 0.0419252 0.051779 0.0837919 0.0359226 0.0193349 0.00467438 0.0511197 0.0620908 0.0222608 0.107735 0.134418 0.163574 0.00497571 0.0927919 0.103067 0.0842993 0.106138 0.0518967
internal_weight=0 1123 957 317 640 306 211 334 242 92 195 70 50 71 125 104 73 53 95
internal_count=1558 1123 957 317 640 306 211 334 242 92 195 70 50 71 125 104 73 53 95
is_linear=0
shrinkage=0.0139424


Tree=47
num_leaves=20
num_cat=0
split_feature=8 5 8 9 11 0 0 8 8 5 0 5 8 6 6 6 5 8 0
split_gain=4548.15 3632.41 1342.87 494.368 434.92 561.004 674.512 477.405 422.55 507.406 831.829 545.992 762.853 357.543 973.528 572.062 355.564 328.831 332.805
threshold=143.34003522697364 4.5075574712643691 163.70271269938397 8.3758241512756584 170.50000000000003 18.500000000000004 15.500000000000002 177.94481923760014 188.59831705289579 4.3069540229885073 23.500000000000004 4.3761206896551732 163.03832852553225 16762247.853683855 18056266.227578659 16149699.578834625 4.7494252873563232 177.94481923760014 6.5000000000000009
decision_type=2 2 2 2 2 2 2 2 2 2 2 2 2 2 2 2 2 2 2
left_child=-1 8 -3 4 7 6 -6 -4 9 10 17 -11 -13 15 -15 -10 -9 -2 -19
right_child=1 2 3 -5 5 -7 -8 16 13 11 -12 12 -14 14 -16 -17 -18 18 -20
leaf_value=-0.011266195347782637 -0.011614102381718339 0.041051622294686174 0.078512104142765687 0.16089593515464487 0.079843049724542647 0.034033268017635503 0.17212542709548945 0.21035305597958501 0.046806051821628739 0.090332166629729843 0.098852613944635792 0.080431071786945293 -0.012647174161140227 -0.060119167266788141 0.050335123454691801 0.13401721186310872 0.11885962066467476 0.071849961393921219 0.010200083204037442
leaf_weight=435 161 94 24 39 72 38 26 21 195 45 24 35 54 27 67 20 20 25 136
leaf_count=435 161 94 24 39 72 38 26 21 195 45 24 35 54 27 67 20 20 25 136
internal_value=0 0.0478805 0.0908081 0.110296 0.100478 0.0846855 0.104326 0.133521 0.0297084 0.0205899 0.0106533 0.0462469 0.0239566 0.043873 0.0186089 0.0549187 0.165722 0.00407947 0.019773
internal_weight=0 1123 334 240 201 136 98 65 789 480 346 134 89 309 94 215 41 322 161
internal_count=1558 1123 334 240 201 136 98 65 789 480 346 134 89 309 94 215 41 322 161
is_linear=0
shrinkage=0.0155297


Tree=48
num_leaves=20
num_cat=0
split_feature=8 5 8 7 3 11 6 8 4 3 9 8 5 6 3 5 9 11 4
split_gain=4688.6 4301.6 1775.14 738.898 650.348 596.845 582.617 603.888 582.574 652.384 753.744 602.735 498.834 462.463 445.533 408.952 1019.09 503.803 485.136
threshold=143.34003522697364 4.5075574712643691 164.97804678515925 1.0000000180025095e-35 3.7500000000000004 173.50000000000003 7451419.9260887718 197.93518523559524 39845.000000000007 5.1100000000000003 0.32633437140969868 194.98803934299335 4.7265517241379316 11886071.855835019 3.7100000000000004 4.281839080459771 0.613088205077163 171.50000000000003 98073.500000000015
decision_type=2 2 2 2 2 2 2 2 2 2 2 2 2 2 2 2 2 2 2
left_child=-1 3 -3 -2 12 6 -5 15 11 10 -10 -6 -4 -11 -7 18 -17 -18 -8
right_child=1 2 4 5 8 14 7 -9 9 13 -12 -13 -14 -15 -16 16 17 -19 -20
leaf_value=0.0072736704264058753 0.016107117039765563 0.057200831262521949 0.049593921354113064 0.11812378151371287 0.22993522085238322 0.025616863990241934 0.024743350921246594 0.1015503348649567 0.2057086261455969 0.14132652811044036 0.11217860277856942 0.12479725156433431 0.13916233639587114 0.046735601312143403 0.10565366628515294 0.028884327925637908 0.071331039651896383 0.1708663142193706 0.076466899435723434
leaf_weight=435 149 99 32 25 32 20 317 38 37 20 41 20 25 28 73 74 24 22 47
leaf_count=435 149 99 32 25 32 20 317 38 37 20 41 20 25 28 73 74 24 22 47
internal_value=0 0.0653709 0.110564 0.0462396 0.133045 0.0532548 0.0472725 0.0438792 0.147188 0.129728 0.156545 0.189498 0.0888783 0.0861485 0.0884415 0.0393513 0.0634037 0.118935 0.0314219
internal_weight=0 1123 334 789 235 640 547 522 178 126 78 52 57 48 93 484 120 46 364
internal_count=1558 1123 334 789 235 640 547 522 178 126 78 52 57 48 93 484 120 46 364
is_linear=0
shrinkage=0.015024


Tree=49
num_leaves=20
num_cat=0
split_feature=8 5 8 7 0 11 8 9 11 8 4 9 4 5 9 11 0 0 9
split_gain=2330.33 2017.06 822.995 701.52 554.428 839.382 767.871 411.075 561.033 946.812 519.61 446.326 646.515 402.422 384.733 381.282 706.403 427.313 427.377
threshold=143.34003522697364 4.5075574712643691 163.70271269938397 1.0000000180025095e-35 20.500000000000004 169.50000000000003 183.7125168109998 -7.8298610293500301 171.50000000000003 186.26716197733018 46531.000000000007 -3.8962667751090811 84442.500000000015 4.2062356321839092 -0.6520648541084072 170.50000000000003 18.500000000000004 15.500000000000002 5.5980556136612822
decision_type=2 2 2 2 2 2 2 2 2 2 2 2 2 2 2 2 2 2 2
left_child=-1 3 -3 -2 6 -6 13 10 14 -10 -8 -11 -13 -5 -9 -4 17 18 -17
right_child=1 2 15 4 5 -7 7 8 9 11 -12 12 -14 -15 -16 16 -18 -19 -20
leaf_value=0.0035680311226159779 0.0012385979435812959 0.056620141501671273 0.17904906495463949 -0.0075014540141670983 0.24021622458146688 0.074929173864459173 0.11579732966699186 -0.023135740964787578 0.25951450581485525 0.19133918674870504 -0.022832419297455202 0.036440476447453123 0.16713063474114687 0.052792487939705847 0.095413738990536054 0.094158633705293454 0.041183367610086299 0.22948687075765467 0.217278054309122
leaf_weight=435 149 94 81 146 20 100 22 33 21 20 44 77 28 102 27 65 47 27 20
leaf_count=435 149 94 81 146 20 100 22 33 21 20 44 77 28 102 27 65 47 27 20
internal_value=0 0.0670633 0.115039 0.0467544 0.057351 0.102477 0.0469373 0.0739624 0.0901692 0.114809 0.0233775 0.0904989 0.0712912 0.0172969 0.0302115 0.137919 0.116966 0.148768 0.123128
internal_weight=0 1123 334 789 640 120 520 272 206 146 66 125 105 248 60 240 159 112 85
internal_count=1558 1123 334 789 640 120 520 272 206 146 66 125 105 248 60 240 159 112 85
is_linear=0
shrinkage=0.0232907


Tree=50
num_leaves=20
num_cat=0
split_feature=8 5 8 7 11 3 0 9 5 8 8 5 3 5 9 8 3 9 5
split_gain=2708.07 2749.22 1201.81 498.055 446.821 423.005 433.838 427.077 405.717 404.457 413.604 385.453 359.209 380.562 379.729 347.126 310.059 342.589 291.86
threshold=143.34003522697364 4.5075574712643691 164.97804678515925 1.0000000180025095e-35 173.50000000000003 3.7500000000000004 18.500000000000004 -0.2681918446833656 4.7265517241379316 197.93518523559524 157.09237459897628 4.6891954022988509 3.7100000000000004 4.1706609195402313 -2.5690009592983687 173.28498364596479 3.9500000000000006 0.76206947596473851 5.0485057471264376
decision_type=2 2 2 2 2 2 2 2 2 2 2 2 2 2 2 2 2 2 2
left_child=18 3 11 -2 9 8 15 -8 -4 10 -5 16 -6 14 -14 -7 -3 -18 -1
right_child=1 2 5 4 12 6 7 -9 -10 -11 -12 -13 13 -15 -16 -17 17 -19 -20
leaf_value=0.00030897989216192108 0.016250901805082704 0.11673262690572374 0.043274866682829018 0.10543634207258037 0.021438273996693229 0.21712678445447303 0.14807617334062501 0.050297074735074915 0.13572513034430772 0.099347019579405282 0.037452785508124503 -0.0052067821326098876 0.18600321068045325 0.045803227520106155 0.08999302561009638 0.14188261599671786 0.00025224178764302285 0.095352470955491098 0.029205931738422588
leaf_weight=266 149 29 32 28 20 22 25 28 25 38 481 25 21 23 29 103 24 21 169
leaf_count=266 149 29 32 28 20 22 25 28 25 38 481 25 21 23 29 103 24 21 169
internal_value=0 0.0620695 0.10342 0.0445649 0.0511567 0.124591 0.137646 0.0964193 0.0838232 0.0452325 0.0411925 0.053167 0.0860011 0.10369 0.130317 0.155126 0.0728879 0.0446323 0.0115356
internal_weight=0 1123 334 789 640 235 178 53 57 547 509 99 93 73 50 125 74 45 435
internal_count=1558 1123 334 789 640 235 178 53 57 547 509 99 93 73 50 125 74 45 435
is_linear=0
shrinkage=0.0171951


Tree=51
num_leaves=20
num_cat=0
split_feature=8 5 8 3 5 4 8 4 3 4 5 4 0 8 4 9 8 5 9
split_gain=1292.9 1140.56 525.751 317.777 345.929 340.901 489.671 345.712 482.438 484.966 246.203 263.228 259.412 241.715 337.565 466.728 519.291 377.98 398.272
threshold=143.34003522697364 4.5075574712643691 163.70271269938397 3.7500000000000004 4.7265517241379316 39845.000000000007 194.98803934299335 59943.500000000007 4.4300000000000006 87416.000000000015 4.6178448275862083 71741.500000000015 17.500000000000004 157.09237459897628 47838.000000000007 1.365927671904082 195.06836312325808 3.8612068965517241 -2.5690009592983687
decision_type=2 2 2 2 2 2 2 2 2 2 2 2 2 2 2 2 2 2 2
left_child=-1 13 10 4 -4 6 -5 -7 -9 -10 12 -12 -3 -2 15 16 -15 -16 -19
right_child=1 2 3 5 -6 7 -8 8 9 -11 11 -13 -14 14 17 -17 -18 18 -20
leaf_value=0.0016223627342548215 0.12851588518769352 0.030916660601398804 0.0099516766715193813 0.29211016052118888 0.159459497913538 0.05352229806744719 0.10078483417635643 0.27201878548055725 0.1809706223020302 0.0043223255023380003 -0.048841142400750923 0.09017757619978968 0.18445476438747482 0.017230155655836514 0.17093610691389258 -0.041150414037100971 0.15159238653540238 0.015066773492079062 0.072641030690455952
leaf_weight=435 30 21 34 33 25 40 20 26 39 23 32 21 20 142 25 96 33 189 274
leaf_count=435 30 21 34 33 25 40 20 26 39 23 32 21 20 142 25 96 33 189 274
internal_value=0 0.0635787 0.110838 0.134795 0.0733024 0.15484 0.219912 0.127896 0.161702 0.11544 0.0496719 0.00624175 0.105813 0.0435728 0.0402154 0.0129107 0.042567 0.0553784 0.0491388
internal_weight=0 1123 334 240 59 181 53 128 88 62 94 53 41 789 759 271 175 488 463
internal_count=1558 1123 334 240 59 181 53 128 88 62 94 53 41 789 759 271 175 488 463
is_linear=0
shrinkage=0.0305108


Tree=52
num_leaves=20
num_cat=0
split_feature=8 7 5 0 8 8 9 9 9 9 9 8 8 8 3 0 0 3 8
split_gain=829.363 1034.93 685.237 662.931 555.793 544.688 466.815 368.257 362.569 465.697 347.286 533.94 536.94 463.135 394.599 305.632 617.463 302.284 282.227
threshold=139.98951486646442 1.0000000180025095e-35 4.3350862068965528 23.500000000000004 176.99689804669933 185.56680652698338 -5.748114822188966 -11.826761988535955 -5.6756511476797868 -3.0493082908123874 11.637305204638205 186.02612544988207 189.74903455749055 181.54084275359963 3.9900000000000007 5.5000000000000009 8.5000000000000018 3.8300000000000005 181.68811426885193
decision_type=2 2 2 2 2 2 2 2 2 2 2 2 2 2 2 2 2 2 2
left_child=-1 -2 3 5 15 7 -6 -3 -9 -10 11 13 -13 -8 -14 -4 -17 -11 -19
right_child=1 2 4 -5 6 -7 10 8 9 17 -12 12 14 -15 -16 16 -18 18 -20
leaf_value=0.0009827345668311999 -0.022621306630647185 -0.10432750457752607 0.18731473311049013 0.19795960354335426 0.03899929768510315 0.071486994665769674 0.1839506245540474 0.11410957477564421 -0.15681353637930226 0.1120614781616177 0.041244850865660251 -0.0049220870030391075 0.31752324181653424 0.40948074462319661 0.13946488957500033 -0.092715424298434143 0.079351219405357831 0.019136907260392098 -0.11449378933857052
leaf_weight=428 166 37 24 33 39 252 23 38 22 32 21 22 22 22 51 30 182 89 25
leaf_count=428 166 37 24 33 39 252 23 38 22 32 21 22 22 22 51 30 182 89 25
internal_value=0 0.0584228 0.0723785 0.0454552 0.104983 0.0352882 0.148082 -0.00225121 0.0160829 -0.00608982 0.174506 0.194496 0.147262 0.29421 0.193126 0.0684577 0.0550022 0.016622 -0.0101681
internal_weight=0 1130 964 528 436 495 200 243 206 168 161 140 95 45 73 236 212 146 114
internal_count=1558 1130 964 528 436 495 200 243 206 168 161 140 95 45 73 236 212 146 114
is_linear=0
shrinkage=0.0351414


Tree=53
num_leaves=20
num_cat=0
